1354 100
0 0.047197 -0.068210 -0.002793 0.138407 0.159768 0.028972 0.070235 -0.071210 0.033077 -0.074813 0.133325 0.006364 -0.051241 -0.029767 -0.014032 0.195912 -0.040290 0.000852 0.014823 0.040214 0.000200 0.030024 0.113455 -0.029397 -0.070713 0.011435 0.050638 -0.072070 -0.092316 0.154357 -0.051470 -0.061474 0.020219 0.116406 -0.005067 -0.055612 0.020138 0.041265 0.025074 0.101490 0.013782 -0.105828 -0.054692 -0.039008 0.071314 0.047795 0.030502 -0.008653 0.086945 -0.029125 0.068139 0.062279 0.062704 0.072234 -0.015619 -0.081619 0.011544 -0.085073 -0.060731 -0.029168 0.061138 -0.149790 -0.161494 -0.136722 -0.122229 0.089710 0.105723 0.036015 -0.051686 -0.080344 -0.075609 0.031668 -0.089059 0.076071 -0.089938 -0.081680 0.069135 -0.131036 0.007631 -0.091401 -0.022402 0.047561 -0.036332 -0.079046 0.012034 0.028855 -0.087073 -0.031000 0.049263 -0.068325 0.027204 -0.136157 0.026744 -0.095025 0.136762 -0.107824 -0.045925 0.134190 -0.222713 -0.027260
A 0.057723 -0.092025 -0.005150 0.188589 0.198439 0.039740 0.106089 -0.112828 0.051661 -0.096813 0.181778 0.016809 -0.067209 -0.027549 -0.014795 0.253138 -0.059062 -0.003553 0.012616 0.057945 -0.008492 0.045741 0.157243 -0.041041 -0.096563 0.021935 0.065501 -0.097323 -0.126290 0.215250 -0.068861 -0.074974 0.028658 0.161099 -0.009266 -0.079637 0.025009 0.041241 0.026976 0.148733 0.035856 -0.133271 -0.076703 -0.040431 0.102363 0.052115 0.040764 -0.019371 0.100074 -0.037648 0.104106 0.081109 0.094493 0.103418 -0.017492 -0.106081 0.021194 -0.129900 -0.062006 -0.034763 0.080180 -0.188969 -0.216164 -0.187502 -0.163933 0.137887 0.136593 0.045278 -0.076771 -0.107033 -0.110584 0.061746 -0.111005 0.092334 -0.134109 -0.114941 0.081779 -0.177396 0.011640 -0.123830 -0.039342 0.071418 -0.047982 -0.108563 0.028142 0.048743 -0.129158 -0.030067 0.067304 -0.096161 0.051576 -0.184169 0.051924 -0.139157 0.186401 -0.158823 -0.062898 0.177636 -0.298126 -0.022613
/ 0.056636 -0.099061 0.000025 0.196095 0.207827 0.038836 0.104172 -0.109397 0.055892 -0.096720 0.186667 0.010486 -0.075011 -0.033587 -0.020072 0.253619 -0.064514 -0.003168 0.020396 0.059359 -0.004928 0.049897 0.163286 -0.040845 -0.096238 0.022551 0.074623 -0.103050 -0.126512 0.209830 -0.063500 -0.075372 0.022374 0.160708 -0.007072 -0.074995 0.019341 0.046816 0.035071 0.151062 0.032591 -0.133606 -0.076346 -0.036751 0.098674 0.052575 0.047098 -0.013734 0.108683 -0.034127 0.098960 0.085312 0.093980 0.095332 -0.013466 -0.109554 0.026966 -0.130573 -0.059798 -0.031567 0.084452 -0.199843 -0.219527 -0.189669 -0.162301 0.139232 0.136897 0.045726 -0.079452 -0.117621 -0.109550 0.056221 -0.120299 0.090822 -0.126021 -0.112981 0.078920 -0.180210 0.018855 -0.126279 -0.042887 0.070553 -0.047903 -0.104863 0.028674 0.054398 -0.132694 -0.029958 0.064529 -0.096930 0.044563 -0.183647 0.051187 -0.132263 0.180717 -0.153198 -0.056912 0.180397 -0.304948 -0.022863
T 0.054692 -0.087251 -0.005513 0.178187 0.188957 0.031293 0.095033 -0.107541 0.053988 -0.089751 0.174883 0.009972 -0.068401 -0.029712 -0.009885 0.233706 -0.062411 -0.004661 0.009842 0.060286 -0.006986 0.045450 0.152048 -0.034788 -0.086972 0.025490 0.068900 -0.099533 -0.117456 0.199240 -0.062206 -0.075216 0.029080 0.149890 -0.008581 -0.073780 0.018838 0.046162 0.028249 0.143403 0.034523 -0.128323 -0.067151 -0.041258 0.089907 0.053385 0.042004 -0.010567 0.090926 -0.027521 0.096098 0.072304 0.084586 0.088904 -0.015178 -0.102642 0.023304 -0.113009 -0.061580 -0.028806 0.079010 -0.175945 -0.198107 -0.169989 -0.147117 0.128773 0.119267 0.046114 -0.071403 -0.108621 -0.099931 0.051635 -0.105590 0.090075 -0.115637 -0.104844 0.069630 -0.164151 0.016548 -0.107272 -0.031409 0.063339 -0.045919 -0.103683 0.020522 0.046943 -0.119938 -0.034062 0.059386 -0.087156 0.039627 -0.168236 0.048437 -0.126564 0.167565 -0.145451 -0.060932 0.160943 -0.283255 -0.019559
1 0.042143 -0.055343 -0.001916 0.126295 0.138620 0.028761 0.066728 -0.065155 0.032255 -0.058580 0.121418 0.008870 -0.048309 -0.025601 -0.015030 0.166939 -0.038106 -0.004566 0.009846 0.038529 -0.007322 0.030004 0.098406 -0.022309 -0.059936 0.010739 0.046918 -0.065300 -0.076311 0.136226 -0.039512 -0.048714 0.013316 0.099502 -0.008516 -0.050923 0.015093 0.030276 0.021720 0.091848 0.015310 -0.092539 -0.043044 -0.033988 0.064844 0.042298 0.027723 -0.006439 0.070790 -0.027693 0.067145 0.052835 0.053147 0.057243 -0.010747 -0.063667 0.009045 -0.071764 -0.051971 -0.024210 0.052064 -0.130643 -0.134444 -0.120091 -0.108875 0.073918 0.088966 0.024983 -0.047733 -0.069314 -0.073495 0.030016 -0.077827 0.066447 -0.081810 -0.070776 0.059606 -0.114785 0.007568 -0.075195 -0.023124 0.041649 -0.028248 -0.067772 0.012223 0.029369 -0.081426 -0.026364 0.047737 -0.063984 0.022511 -0.111207 0.025896 -0.087556 0.111832 -0.100351 -0.044692 0.114585 -0.195469 -0.023830
E 0.056247 -0.088214 -0.001078 0.189591 0.194369 0.038705 0.105375 -0.111636 0.051121 -0.088845 0.181624 0.016369 -0.069490 -0.023504 -0.017991 0.239509 -0.063537 -0.004753 0.014014 0.053869 -0.002239 0.047636 0.158864 -0.039336 -0.091927 0.026662 0.066689 -0.104180 -0.120905 0.210775 -0.058785 -0.080550 0.023145 0.155570 -0.011257 -0.075432 0.015476 0.048800 0.027114 0.149321 0.034088 -0.133577 -0.077645 -0.035625 0.099219 0.050053 0.040944 -0.019213 0.100290 -0.029207 0.099124 0.077092 0.095965 0.100407 -0.015578 -0.103216 0.022214 -0.120250 -0.057866 -0.024849 0.085275 -0.187870 -0.212392 -0.181119 -0.153426 0.131262 0.133884 0.042732 -0.078792 -0.111681 -0.108860 0.061493 -0.113369 0.088323 -0.131484 -0.108394 0.078063 -0.173824 0.020347 -0.115631 -0.036298 0.066596 -0.052775 -0.107702 0.020633 0.051507 -0.131464 -0.032466 0.070817 -0.092362 0.051189 -0.173372 0.051759 -0.128147 0.182023 -0.155554 -0.059532 0.171823 -0.294422 -0.029249
I 0.064665 -0.108602 -0.000864 0.214919 0.229854 0.038050 0.119439 -0.130372 0.064156 -0.105595 0.214232 0.017638 -0.074180 -0.036656 -0.021074 0.282708 -0.075548 -0.008259 0.015422 0.065692 -0.010584 0.052419 0.175234 -0.045276 -0.111331 0.029649 0.083280 -0.115392 -0.135270 0.238695 -0.071555 -0.088372 0.026942 0.180218 -0.006581 -0.084127 0.027605 0.056470 0.033878 0.174083 0.034835 -0.152349 -0.089266 -0.047375 0.111190 0.064387 0.050622 -0.018332 0.112599 -0.039552 0.117092 0.091984 0.106807 0.117372 -0.019996 -0.123012 0.031454 -0.141418 -0.072579 -0.036092 0.093101 -0.217575 -0.246001 -0.202913 -0.180046 0.155539 0.147181 0.056085 -0.082240 -0.126415 -0.121526 0.074301 -0.134653 0.100319 -0.145062 -0.131408 0.090399 -0.194230 0.021180 -0.139688 -0.045621 0.072529 -0.054769 -0.125291 0.022715 0.056260 -0.147400 -0.040279 0.078084 -0.107127 0.056031 -0.208101 0.053333 -0.151953 0.201970 -0.175262 -0.072959 0.198378 -0.345857 -0.027727
5 0.035659 -0.061711 -0.007487 0.124974 0.135630 0.020315 0.067902 -0.063364 0.031413 -0.063852 0.119372 0.006686 -0.044860 -0.016321 -0.013976 0.165270 -0.040365 0.002431 0.011791 0.034419 0.001457 0.022134 0.099742 -0.023161 -0.061094 0.014076 0.042068 -0.064547 -0.082512 0.136735 -0.043183 -0.050768 0.017204 0.092951 -0.011004 -0.049685 0.012034 0.033447 0.021839 0.093567 0.017944 -0.090097 -0.045868 -0.023539 0.055750 0.043071 0.027629 -0.010250 0.073027 -0.029365 0.059080 0.056728 0.056168 0.061279 -0.008043 -0.062184 0.012526 -0.078355 -0.050876 -0.024927 0.048197 -0.126907 -0.129416 -0.118881 -0.105755 0.077263 0.082555 0.026303 -0.046967 -0.071615 -0.066103 0.035742 -0.074642 0.064539 -0.078434 -0.066524 0.051380 -0.111515 0.011642 -0.077182 -0.020009 0.044630 -0.032096 -0.065971 0.010571 0.026548 -0.079978 -0.027839 0.040415 -0.059511 0.029585 -0.108027 0.029855 -0.085946 0.117162 -0.097781 -0.037337 0.114404 -0.190710 -0.023138
C 0.054331 -0.092122 -0.004693 0.192324 0.205747 0.035838 0.108999 -0.110191 0.056586 -0.098311 0.188902 0.008129 -0.071596 -0.028622 -0.015938 0.249280 -0.069085 -0.007297 0.019787 0.062830 -0.009270 0.049048 0.157573 -0.037416 -0.100735 0.021905 0.076272 -0.102092 -0.128201 0.216340 -0.062719 -0.076003 0.022230 0.155798 -0.004933 -0.083032 0.018013 0.049052 0.033876 0.152307 0.029532 -0.139177 -0.081380 -0.045733 0.101282 0.053312 0.042907 -0.016330 0.102447 -0.032741 0.104810 0.086462 0.094692 0.103134 -0.015798 -0.108152 0.026315 -0.130026 -0.070183 -0.029568 0.078781 -0.197132 -0.218578 -0.188307 -0.157590 0.133928 0.130364 0.043681 -0.081457 -0.116254 -0.109382 0.063590 -0.116996 0.096815 -0.133648 -0.109710 0.083007 -0.175756 0.018723 -0.119173 -0.039253 0.064394 -0.046087 -0.114890 0.021706 0.055638 -0.135690 -0.035034 0.066562 -0.091081 0.049523 -0.181050 0.051177 -0.135315 0.186411 -0.161990 -0.062552 0.177446 -0.304381 -0.023960
P 0.046591 -0.075010 0.002741 0.145600 0.158196 0.029974 0.087432 -0.091582 0.042059 -0.073146 0.143928 0.006862 -0.051552 -0.018962 -0.015853 0.194957 -0.052760 -0.006542 0.011566 0.049563 -0.001976 0.031248 0.118560 -0.031241 -0.074613 0.022344 0.050613 -0.077281 -0.096451 0.171209 -0.055542 -0.058096 0.018555 0.120210 -0.006332 -0.057959 0.020733 0.036287 0.019170 0.121730 0.028273 -0.100931 -0.055124 -0.030465 0.076012 0.045133 0.037502 -0.014106 0.084818 -0.026562 0.078652 0.061509 0.077996 0.078711 -0.009261 -0.087234 0.016331 -0.101031 -0.048940 -0.027454 0.068102 -0.155112 -0.163859 -0.146169 -0.128492 0.110489 0.101212 0.039547 -0.060055 -0.082335 -0.087402 0.047903 -0.087416 0.068064 -0.101987 -0.089658 0.057297 -0.133648 0.009727 -0.090389 -0.034433 0.048323 -0.042224 -0.081570 0.021534 0.038829 -0.106698 -0.024951 0.054281 -0.072483 0.037106 -0.142381 0.035246 -0.107951 0.142638 -0.119981 -0.051192 0.135459 -0.239700 -0.020449
O 0.055519 -0.095482 -0.005520 0.190637 0.202918 0.037337 0.104338 -0.112884 0.058058 -0.091907 0.184223 0.016946 -0.072562 -0.030337 -0.014487 0.245165 -0.059948 -0.005086 0.017160 0.061691 -0.001448 0.045714 0.156455 -0.044664 -0.096551 0.019854 0.074891 -0.101993 -0.122921 0.213110 -0.069986 -0.076067 0.024552 0.154826 -0.009751 -0.079287 0.020528 0.044899 0.031423 0.148809 0.036013 -0.139626 -0.073086 -0.040781 0.102042 0.057864 0.043620 -0.021129 0.106232 -0.035695 0.105787 0.078694 0.097876 0.101587 -0.017973 -0.104435 0.022497 -0.127855 -0.064656 -0.026151 0.084563 -0.193191 -0.213013 -0.188685 -0.156696 0.136671 0.135110 0.051044 -0.076262 -0.107312 -0.106126 0.064984 -0.117741 0.097110 -0.126879 -0.115614 0.083588 -0.179710 0.020253 -0.122963 -0.034695 0.071846 -0.053341 -0.110549 0.020115 0.052623 -0.135979 -0.030666 0.069578 -0.093500 0.047373 -0.184540 0.044051 -0.132778 0.183145 -0.159742 -0.056804 0.178455 -0.297499 -0.028243
. 0.036406 -0.063087 -0.004369 0.130771 0.140577 0.022898 0.078585 -0.076400 0.035399 -0.070893 0.133131 0.008145 -0.052793 -0.022065 -0.011929 0.172063 -0.043260 -0.005972 0.013474 0.044680 -0.008316 0.027840 0.106357 -0.031892 -0.068405 0.017885 0.046701 -0.068461 -0.089194 0.149049 -0.047190 -0.059399 0.022676 0.104134 -0.003477 -0.053285 0.009179 0.035381 0.018331 0.107558 0.025166 -0.095262 -0.048413 -0.032728 0.066169 0.041415 0.035731 -0.012558 0.069694 -0.026430 0.066951 0.062507 0.062530 0.064511 -0.011113 -0.077123 0.019762 -0.088757 -0.044356 -0.025934 0.058942 -0.134055 -0.150119 -0.124516 -0.112265 0.096110 0.087859 0.035445 -0.056296 -0.072899 -0.073560 0.046293 -0.077639 0.060429 -0.088141 -0.077558 0.058796 -0.120972 0.009837 -0.082906 -0.022999 0.048489 -0.034820 -0.079310 0.014094 0.038559 -0.094243 -0.019513 0.047589 -0.065543 0.031221 -0.127066 0.036205 -0.094992 0.127131 -0.110232 -0.041503 0.121980 -0.213497 -0.021322
N 0.056132 -0.100230 -0.000361 0.200834 0.211984 0.034619 0.115633 -0.122976 0.058346 -0.104822 0.200602 0.010470 -0.073040 -0.030556 -0.013153 0.261443 -0.071901 -0.009591 0.015338 0.062165 -0.001949 0.054146 0.169822 -0.042477 -0.104265 0.020640 0.078015 -0.107958 -0.132947 0.229782 -0.072616 -0.087252 0.029889 0.168432 -0.010919 -0.084863 0.017757 0.049990 0.027470 0.166198 0.036014 -0.140510 -0.085979 -0.040754 0.109864 0.059584 0.048882 -0.015250 0.109675 -0.033222 0.106713 0.088941 0.097106 0.101592 -0.017713 -0.113879 0.027867 -0.133279 -0.063472 -0.034594 0.082771 -0.209853 -0.225974 -0.198590 -0.167223 0.144865 0.141719 0.052227 -0.076198 -0.112920 -0.117322 0.065494 -0.127746 0.097440 -0.140657 -0.121472 0.084650 -0.185641 0.020272 -0.130443 -0.035654 0.066668 -0.053063 -0.114272 0.030957 0.052145 -0.136403 -0.033429 0.068198 -0.094952 0.051508 -0.187654 0.048088 -0.144397 0.194936 -0.164393 -0.066161 0.180405 -0.320650 -0.029217
2 0.027356 -0.043694 0.002391 0.086759 0.096646 0.021530 0.040104 -0.046714 0.019290 -0.037288 0.083491 0.009208 -0.030981 -0.013056 -0.007730 0.117268 -0.027469 -0.000225 0.012844 0.027908 -0.006924 0.014422 0.070097 -0.018280 -0.039938 0.007691 0.026739 -0.046091 -0.059424 0.096653 -0.028808 -0.036463 0.010504 0.067053 -0.002022 -0.032558 0.007344 0.024383 0.011391 0.063510 0.009814 -0.058758 -0.029541 -0.020893 0.047390 0.025798 0.020531 -0.001257 0.052612 -0.016008 0.048150 0.034444 0.044169 0.047807 -0.008845 -0.049967 0.009651 -0.053173 -0.029690 -0.010978 0.040701 -0.090008 -0.098770 -0.077751 -0.073132 0.052571 0.063810 0.020368 -0.031043 -0.049976 -0.048689 0.027947 -0.057004 0.039527 -0.053209 -0.049996 0.040123 -0.076330 0.007853 -0.057371 -0.017278 0.027162 -0.024257 -0.051156 0.006703 0.022564 -0.057664 -0.021212 0.032413 -0.046268 0.021375 -0.083078 0.017885 -0.063710 0.079204 -0.068670 -0.029436 0.082873 -0.136959 -0.018106
S 0.055919 -0.089705 -0.004207 0.169445 0.184582 0.035966 0.101119 -0.103517 0.051098 -0.082891 0.168214 0.008794 -0.062212 -0.024616 -0.012889 0.225548 -0.062764 -0.001613 0.016308 0.056424 -0.000369 0.042581 0.143285 -0.040182 -0.084116 0.024977 0.062111 -0.097099 -0.108379 0.190275 -0.056622 -0.067736 0.025342 0.144552 -0.009142 -0.076335 0.016643 0.041405 0.024980 0.140816 0.032337 -0.123003 -0.069509 -0.035575 0.088861 0.054565 0.042658 -0.017896 0.088751 -0.030255 0.092217 0.073573 0.084872 0.092858 -0.019287 -0.092304 0.026097 -0.114232 -0.057938 -0.025801 0.073843 -0.178871 -0.191224 -0.168335 -0.148566 0.123019 0.119581 0.039444 -0.069022 -0.104183 -0.101947 0.056165 -0.105580 0.087182 -0.115649 -0.102228 0.071698 -0.155802 0.017464 -0.113908 -0.035579 0.059513 -0.048041 -0.102260 0.023971 0.043259 -0.120885 -0.027128 0.057102 -0.081630 0.042908 -0.158624 0.043644 -0.117306 0.166296 -0.145315 -0.053224 0.160457 -0.271400 -0.024162
8 0.040303 -0.060499 -0.003617 0.114875 0.130164 0.021808 0.062691 -0.061342 0.031976 -0.052768 0.109200 0.009447 -0.036667 -0.025582 -0.007542 0.158662 -0.036588 0.003413 0.012981 0.037830 -0.003158 0.028600 0.097452 -0.022372 -0.052708 0.009390 0.040367 -0.063097 -0.072758 0.125871 -0.033815 -0.051308 0.015724 0.093186 -0.011318 -0.049244 0.009879 0.029844 0.019957 0.087681 0.012291 -0.084436 -0.041931 -0.026718 0.053818 0.034685 0.025323 -0.005886 0.071001 -0.028933 0.057988 0.049792 0.046989 0.060684 -0.006881 -0.065466 0.004881 -0.066116 -0.046883 -0.015977 0.043201 -0.121737 -0.132695 -0.114971 -0.102607 0.067020 0.085769 0.023662 -0.037729 -0.062881 -0.065841 0.025171 -0.071481 0.057790 -0.076485 -0.065221 0.055868 -0.098157 0.003810 -0.071583 -0.021512 0.038670 -0.028688 -0.064973 0.016632 0.024728 -0.071736 -0.027182 0.042167 -0.058502 0.028469 -0.112008 0.028323 -0.084084 0.106179 -0.094617 -0.039690 0.108357 -0.180198 -0.020059
6 0.038138 -0.060290 -0.007175 0.122594 0.129776 0.026319 0.057767 -0.057407 0.031679 -0.058966 0.112011 0.004455 -0.039659 -0.019277 -0.012863 0.160099 -0.038746 0.001166 0.011248 0.032645 -0.001691 0.024746 0.101883 -0.029744 -0.059239 0.006620 0.043203 -0.062480 -0.075677 0.134281 -0.041443 -0.048586 0.012623 0.093379 -0.007756 -0.046476 0.009988 0.027163 0.021531 0.086927 0.018130 -0.082554 -0.041220 -0.031293 0.060302 0.038113 0.029575 -0.004298 0.070505 -0.026766 0.057772 0.052278 0.052278 0.062252 -0.005968 -0.069499 0.011085 -0.072343 -0.043488 -0.022510 0.048240 -0.123525 -0.134938 -0.117797 -0.097120 0.072893 0.084871 0.026002 -0.042397 -0.064139 -0.069185 0.029038 -0.074621 0.063589 -0.078557 -0.070499 0.056251 -0.106511 0.011431 -0.074558 -0.019269 0.044024 -0.027113 -0.065007 0.018261 0.028549 -0.077892 -0.026832 0.047163 -0.063212 0.026721 -0.114015 0.028576 -0.083906 0.112374 -0.089898 -0.036304 0.107291 -0.181470 -0.023266
M 0.038852 -0.058271 -0.005477 0.119681 0.127460 0.023944 0.067748 -0.065534 0.031949 -0.055180 0.118361 0.008440 -0.043046 -0.015232 -0.007828 0.156534 -0.035561 0.002038 0.012800 0.038830 -0.001285 0.027864 0.104298 -0.027142 -0.055904 0.016973 0.047684 -0.069023 -0.075211 0.136439 -0.045221 -0.054207 0.018260 0.098890 -0.005093 -0.050218 0.013825 0.026047 0.014612 0.095200 0.024464 -0.088535 -0.051437 -0.028221 0.062982 0.036997 0.026843 -0.012563 0.059923 -0.020019 0.061733 0.054539 0.060469 0.064347 -0.007042 -0.068743 0.013620 -0.074396 -0.039307 -0.014391 0.048723 -0.123615 -0.136057 -0.113067 -0.100037 0.083846 0.085137 0.032311 -0.043278 -0.073276 -0.063578 0.042757 -0.069528 0.060088 -0.084124 -0.073115 0.046660 -0.113000 0.006765 -0.072393 -0.024617 0.046960 -0.026146 -0.063030 0.019547 0.034834 -0.078363 -0.023678 0.047888 -0.057621 0.031830 -0.116407 0.035417 -0.088057 0.109422 -0.098774 -0.041511 0.107960 -0.187664 -0.014566
L 0.059662 -0.102564 -0.004623 0.207549 0.217150 0.038585 0.118574 -0.123526 0.057822 -0.100225 0.203234 0.018313 -0.069115 -0.027410 -0.013566 0.266418 -0.064378 -0.003093 0.022247 0.059719 -0.001871 0.054479 0.170235 -0.039418 -0.106676 0.023084 0.079848 -0.105817 -0.137416 0.231424 -0.069866 -0.084992 0.027926 0.173936 -0.010196 -0.089575 0.017981 0.050003 0.031739 0.167647 0.036832 -0.142555 -0.082993 -0.039181 0.108195 0.058064 0.047149 -0.022464 0.114535 -0.031436 0.111657 0.084382 0.100265 0.110196 -0.019893 -0.118953 0.030026 -0.138842 -0.065027 -0.031317 0.090977 -0.210440 -0.234472 -0.200657 -0.167850 0.144981 0.140959 0.054379 -0.080283 -0.123044 -0.115034 0.070331 -0.123390 0.099241 -0.144101 -0.115936 0.085885 -0.188655 0.021570 -0.125540 -0.042258 0.072169 -0.052039 -0.113089 0.022662 0.051111 -0.135220 -0.037810 0.077967 -0.099926 0.051159 -0.193621 0.048453 -0.150113 0.194886 -0.169850 -0.061082 0.187281 -0.325985 -0.024128
- 0.022311 -0.031228 -0.005760 0.077191 0.081082 0.016021 0.033708 -0.029749 0.017860 -0.033538 0.066119 0.005970 -0.027546 -0.017834 -0.009414 0.099097 -0.015883 -0.003176 0.009899 0.019309 -0.002788 0.013375 0.057340 -0.017697 -0.034471 -0.000500 0.026513 -0.032806 -0.042377 0.083233 -0.019368 -0.035815 0.005726 0.061947 -0.008818 -0.025381 0.009006 0.015607 0.017340 0.047878 0.006983 -0.058219 -0.022512 -0.017848 0.039873 0.028815 0.017578 0.000072 0.045758 -0.015577 0.037329 0.032049 0.025251 0.034841 -0.008784 -0.037109 -0.000803 -0.041945 -0.033501 -0.018177 0.032966 -0.077023 -0.077350 -0.069362 -0.061400 0.037510 0.057966 0.020421 -0.019594 -0.038004 -0.040105 0.011328 -0.047259 0.035995 -0.044295 -0.042420 0.041130 -0.060135 0.003772 -0.048602 -0.007130 0.024261 -0.013710 -0.034967 0.012565 0.010217 -0.043788 -0.012393 0.030782 -0.040196 0.015144 -0.064992 0.016614 -0.051519 0.070385 -0.057170 -0.027158 0.069579 -0.111632 -0.016549
9 0.029432 -0.050055 -0.007190 0.114939 0.122260 0.022684 0.063462 -0.058073 0.028463 -0.059025 0.106170 0.004093 -0.042770 -0.023344 -0.009099 0.151389 -0.034814 -0.002939 0.013062 0.038457 -0.007345 0.021791 0.093070 -0.022261 -0.054885 0.011637 0.035314 -0.054442 -0.075650 0.117157 -0.038454 -0.045060 0.014841 0.084528 -0.004487 -0.041393 0.016091 0.026996 0.021128 0.081615 0.015473 -0.082906 -0.045781 -0.022884 0.059097 0.036155 0.024152 -0.002850 0.066612 -0.021312 0.055870 0.044840 0.052718 0.054623 -0.007359 -0.058930 0.007713 -0.068382 -0.046370 -0.021323 0.044728 -0.109713 -0.125156 -0.107387 -0.093504 0.075357 0.082000 0.028325 -0.041740 -0.061159 -0.063373 0.027983 -0.069106 0.053701 -0.070524 -0.057831 0.053113 -0.100169 0.004935 -0.066472 -0.016171 0.034313 -0.025290 -0.065559 0.010616 0.027654 -0.074209 -0.016928 0.043297 -0.055850 0.019303 -0.107042 0.022705 -0.078012 0.103504 -0.091663 -0.037092 0.104225 -0.167718 -0.015879
3 0.016006 -0.026053 0.000131 0.052609 0.053375 0.005043 0.027615 -0.023525 0.013921 -0.025427 0.050749 0.002679 -0.017985 -0.010827 -0.001686 0.063777 -0.010520 -0.000227 0.004137 0.013177 -0.000014 0.015011 0.043023 -0.014437 -0.023892 0.006546 0.020519 -0.029680 -0.026912 0.055213 -0.014097 -0.018438 0.005427 0.040355 -0.002528 -0.016387 0.005540 0.011669 0.007388 0.036442 0.010547 -0.036788 -0.019058 -0.014199 0.023283 0.019297 0.012113 -0.002770 0.028247 -0.012622 0.029060 0.020141 0.022608 0.019966 -0.006606 -0.027260 0.002720 -0.031125 -0.022099 -0.004918 0.020300 -0.049095 -0.050594 -0.042287 -0.043185 0.029145 0.030269 0.006511 -0.017047 -0.028415 -0.026832 0.016335 -0.030767 0.029032 -0.031729 -0.029354 0.024498 -0.045056 0.002597 -0.029432 -0.011787 0.018961 -0.007434 -0.030738 0.009235 0.013914 -0.035260 -0.009465 0.021440 -0.023670 0.012998 -0.048308 0.015021 -0.031140 0.043345 -0.036529 -0.018542 0.048196 -0.074933 -0.009071
W 0.025524 -0.038332 -0.004843 0.079749 0.087098 0.020321 0.051741 -0.047886 0.019309 -0.047295 0.078784 0.002997 -0.035130 -0.013746 -0.009365 0.110189 -0.022996 -0.006879 0.005633 0.025799 -0.002405 0.019132 0.066230 -0.020518 -0.037466 0.011116 0.034952 -0.039788 -0.052999 0.099232 -0.024122 -0.036532 0.010566 0.067165 0.000410 -0.037201 0.009749 0.017345 0.010002 0.069532 0.010583 -0.064038 -0.035770 -0.017293 0.039839 0.028943 0.018310 -0.008716 0.041466 -0.019966 0.047582 0.041104 0.041908 0.046810 -0.010076 -0.048399 0.015112 -0.054649 -0.032815 -0.011909 0.036162 -0.085997 -0.097425 -0.079562 -0.073914 0.056233 0.064048 0.015284 -0.037624 -0.053777 -0.047075 0.020996 -0.055807 0.044690 -0.062345 -0.049656 0.041296 -0.073305 0.005482 -0.057647 -0.019152 0.031874 -0.025731 -0.045608 0.014136 0.022632 -0.059541 -0.013253 0.027131 -0.046956 0.020499 -0.082190 0.016418 -0.055089 0.085089 -0.065962 -0.022244 0.081520 -0.134927 -0.009952
R 0.051607 -0.082481 0.001778 0.165275 0.171646 0.035242 0.084240 -0.094261 0.047711 -0.080496 0.156236 0.015984 -0.060417 -0.023441 -0.008359 0.211271 -0.056639 -0.008079 0.009273 0.045924 -0.004686 0.041423 0.132211 -0.036863 -0.081424 0.019545 0.057239 -0.090937 -0.099629 0.181207 -0.058580 -0.062964 0.018955 0.130119 -0.007392 -0.063244 0.014488 0.037006 0.023163 0.131717 0.026573 -0.117858 -0.068431 -0.037611 0.085324 0.045887 0.040633 -0.014938 0.091094 -0.027276 0.084411 0.073870 0.079690 0.088407 -0.018057 -0.090973 0.017570 -0.108767 -0.057310 -0.022967 0.069573 -0.160431 -0.180165 -0.150685 -0.138372 0.109670 0.115489 0.042533 -0.058849 -0.092718 -0.092849 0.048041 -0.097928 0.078995 -0.107147 -0.090350 0.063610 -0.144905 0.009748 -0.104527 -0.028130 0.056990 -0.039616 -0.092816 0.024644 0.039482 -0.112844 -0.029757 0.055061 -0.077340 0.035512 -0.153376 0.041967 -0.113373 0.154293 -0.135005 -0.054274 0.142532 -0.258733 -0.021698
U 0.032536 -0.055576 -0.005081 0.118934 0.118752 0.020924 0.061686 -0.070545 0.028263 -0.060693 0.109046 0.010218 -0.041824 -0.019124 -0.011568 0.144529 -0.033780 -0.000022 0.010404 0.035581 -0.006858 0.031901 0.093932 -0.029364 -0.061949 0.009768 0.043522 -0.062362 -0.070919 0.132048 -0.038652 -0.046621 0.017895 0.097188 -0.009962 -0.046765 0.012534 0.026559 0.015700 0.097013 0.023250 -0.083743 -0.047848 -0.019765 0.060886 0.036239 0.024900 -0.007987 0.060461 -0.016063 0.060611 0.054396 0.056937 0.061064 -0.010856 -0.060044 0.013649 -0.079904 -0.034180 -0.021963 0.047312 -0.116451 -0.126825 -0.106984 -0.099521 0.084585 0.081206 0.028417 -0.041588 -0.071517 -0.069642 0.039891 -0.071840 0.059525 -0.083274 -0.067100 0.051120 -0.102556 0.009067 -0.075889 -0.017896 0.045570 -0.033917 -0.064404 0.019565 0.032559 -0.083525 -0.022570 0.041050 -0.057154 0.025304 -0.103404 0.030532 -0.080451 0.108681 -0.098833 -0.037103 0.103677 -0.185268 -0.011098
4 0.019374 -0.028285 -0.005238 0.064462 0.069161 0.012661 0.027097 -0.027306 0.018413 -0.029132 0.060477 -0.000423 -0.023482 -0.006994 -0.004453 0.084062 -0.019099 0.003978 0.005689 0.018023 -0.000077 0.016727 0.050130 -0.015417 -0.025059 0.001141 0.017812 -0.026500 -0.038042 0.063895 -0.022745 -0.022257 0.012555 0.046843 -0.000014 -0.026087 0.004121 0.018412 0.011354 0.047856 0.005579 -0.043772 -0.019262 -0.016947 0.027794 0.021146 0.014971 -0.005891 0.034438 -0.016157 0.030034 0.027288 0.027198 0.030994 -0.002858 -0.037703 0.008686 -0.038161 -0.029151 -0.015126 0.027274 -0.063353 -0.067323 -0.059981 -0.054427 0.041456 0.040778 0.013482 -0.025704 -0.037776 -0.036306 0.011633 -0.040884 0.032749 -0.043874 -0.030727 0.025614 -0.057928 0.006953 -0.032732 -0.012368 0.022533 -0.010411 -0.030730 0.008074 0.016939 -0.034114 -0.012616 0.025881 -0.035115 0.008271 -0.059732 0.011377 -0.045846 0.052158 -0.049466 -0.021348 0.055350 -0.092797 -0.015665
H 0.040499 -0.062730 0.002092 0.139257 0.149015 0.030343 0.073243 -0.085489 0.035855 -0.067674 0.127929 0.004745 -0.053572 -0.015606 -0.011731 0.181405 -0.045837 -0.000446 0.010194 0.046840 0.001193 0.037278 0.115844 -0.028169 -0.070534 0.015923 0.045472 -0.074440 -0.091967 0.147325 -0.042730 -0.059256 0.020649 0.117284 -0.003352 -0.059836 0.018613 0.029607 0.017750 0.108430 0.022518 -0.095144 -0.057978 -0.026168 0.071945 0.037409 0.035827 -0.015948 0.074507 -0.018954 0.076684 0.057618 0.068854 0.067513 -0.010089 -0.075642 0.012848 -0.087145 -0.041466 -0.018103 0.058253 -0.133466 -0.150387 -0.126702 -0.119091 0.091972 0.095337 0.037990 -0.049964 -0.082240 -0.075009 0.044686 -0.085949 0.061880 -0.096316 -0.080399 0.056315 -0.125811 0.007549 -0.081284 -0.031940 0.046468 -0.039252 -0.080986 0.018620 0.036139 -0.091539 -0.018915 0.053321 -0.066720 0.036616 -0.130043 0.038907 -0.094037 0.129993 -0.107512 -0.041413 0.122620 -0.215322 -0.020931
D 0.042208 -0.066603 -0.003626 0.132002 0.138612 0.029589 0.075494 -0.079358 0.039419 -0.069443 0.125352 0.008228 -0.047034 -0.021351 -0.006141 0.171952 -0.041597 -0.005178 0.010400 0.043992 -0.005598 0.031500 0.112645 -0.029405 -0.061217 0.018072 0.045222 -0.073809 -0.088351 0.148735 -0.046596 -0.054727 0.019403 0.102763 -0.011128 -0.056318 0.010963 0.036075 0.016016 0.107366 0.022861 -0.090054 -0.052836 -0.023419 0.071993 0.043345 0.029516 -0.014253 0.072886 -0.022081 0.066111 0.061141 0.064789 0.064009 -0.007270 -0.072413 0.018141 -0.086057 -0.039989 -0.020636 0.059919 -0.129251 -0.150055 -0.121958 -0.106276 0.092342 0.085863 0.031130 -0.048726 -0.074532 -0.075743 0.039097 -0.083111 0.059231 -0.087264 -0.074215 0.057698 -0.122578 0.006609 -0.086224 -0.026757 0.042222 -0.032359 -0.072190 0.020815 0.029186 -0.087294 -0.019125 0.044782 -0.063624 0.035728 -0.121349 0.030670 -0.088791 0.126603 -0.109156 -0.040461 0.113279 -0.200684 -0.014612
， 0.019330 -0.028343 0.003707 0.059874 0.064316 0.012433 0.034548 -0.030139 0.015993 -0.032565 0.054266 0.007174 -0.021694 -0.009544 -0.001103 0.081707 -0.020241 -0.000280 0.007580 0.021505 -0.004752 0.018148 0.046484 -0.017083 -0.030946 0.001206 0.020414 -0.031163 -0.035539 0.066074 -0.016003 -0.023525 0.012844 0.052050 -0.000179 -0.022063 0.008925 0.017176 0.014045 0.043088 0.009007 -0.040015 -0.024649 -0.012115 0.029024 0.015356 0.013539 -0.003128 0.030064 -0.007663 0.035320 0.030855 0.026901 0.027940 -0.006501 -0.032832 0.010153 -0.035544 -0.026244 -0.014010 0.025661 -0.058808 -0.070716 -0.062114 -0.052077 0.041547 0.042790 0.016851 -0.026631 -0.031419 -0.035820 0.015184 -0.033190 0.028185 -0.044015 -0.030070 0.027915 -0.053152 -0.000284 -0.040724 -0.012795 0.023386 -0.011119 -0.033480 0.005829 0.009420 -0.040206 -0.015327 0.018588 -0.027193 0.015170 -0.060184 0.011476 -0.038757 0.057198 -0.050606 -0.015703 0.055366 -0.097958 -0.008009
） 0.015545 -0.029414 0.002198 0.049087 0.050895 0.011606 0.029260 -0.022703 0.016112 -0.021034 0.044744 0.002452 -0.019651 -0.010098 -0.000378 0.070714 -0.011613 -0.004898 0.007896 0.016846 -0.001445 0.007965 0.046409 -0.015785 -0.025431 0.008388 0.018843 -0.029025 -0.029476 0.060621 -0.013976 -0.021563 0.006772 0.040799 -0.004154 -0.024224 0.009463 0.017178 0.013394 0.037475 0.006111 -0.035698 -0.017502 -0.011897 0.028509 0.010970 0.006796 -0.005875 0.030157 -0.007299 0.025817 0.020018 0.023419 0.025659 -0.003505 -0.024822 0.001088 -0.027260 -0.021205 -0.009304 0.023315 -0.056236 -0.057043 -0.051502 -0.044353 0.035795 0.035999 0.010167 -0.015329 -0.033705 -0.033385 0.009202 -0.035389 0.026015 -0.035830 -0.025913 0.027198 -0.043848 -0.000173 -0.033991 -0.010447 0.014351 -0.013154 -0.032837 0.004680 0.010804 -0.033359 -0.013209 0.016428 -0.025523 0.007334 -0.045340 0.008759 -0.030598 0.048370 -0.039962 -0.014323 0.041044 -0.079577 -0.012457
、 0.013267 -0.031601 -0.004413 0.060963 0.059969 0.009140 0.027287 -0.037026 0.018379 -0.030899 0.052016 0.001361 -0.023926 -0.007024 -0.003286 0.077550 -0.015666 0.000927 0.004824 0.015684 -0.004453 0.017852 0.051638 -0.010172 -0.032341 0.009253 0.017323 -0.034232 -0.035252 0.060408 -0.021664 -0.022566 0.010928 0.045017 -0.005300 -0.025496 0.007132 0.011300 0.005036 0.041476 0.013689 -0.036320 -0.018398 -0.014934 0.024862 0.017336 0.015123 -0.004783 0.027397 -0.012631 0.028838 0.022695 0.024621 0.026816 -0.007466 -0.033536 0.009163 -0.040812 -0.017185 -0.012081 0.022145 -0.058448 -0.061229 -0.059865 -0.045142 0.034953 0.041950 0.014808 -0.021770 -0.030916 -0.032500 0.020927 -0.031916 0.030733 -0.039791 -0.037681 0.024886 -0.055552 -0.000073 -0.040791 -0.013007 0.024793 -0.018085 -0.028555 0.004806 0.017250 -0.033854 -0.012545 0.023277 -0.024023 0.014300 -0.049314 0.009074 -0.041345 0.055978 -0.041147 -0.015669 0.049455 -0.087450 -0.007257
Y 0.024259 -0.040840 -0.000424 0.085431 0.088455 0.014833 0.050989 -0.048764 0.023577 -0.047332 0.086092 0.006339 -0.031072 -0.013885 -0.005957 0.113866 -0.025388 -0.000714 0.002503 0.026775 -0.000424 0.017746 0.071864 -0.017560 -0.046998 0.013974 0.034939 -0.043648 -0.052042 0.096384 -0.025877 -0.031664 0.012830 0.073154 0.000844 -0.036067 0.006823 0.016539 0.013669 0.072968 0.019825 -0.065125 -0.034198 -0.021063 0.044667 0.029604 0.015813 -0.007466 0.044941 -0.016323 0.041523 0.036906 0.046376 0.042245 -0.003834 -0.045032 0.008683 -0.059605 -0.030906 -0.013558 0.036334 -0.086294 -0.098216 -0.085287 -0.073660 0.060835 0.062648 0.024678 -0.038501 -0.050724 -0.049566 0.027363 -0.049659 0.038222 -0.059621 -0.054889 0.036854 -0.083000 0.011070 -0.057676 -0.018930 0.028250 -0.020595 -0.045379 0.006851 0.026347 -0.063350 -0.018580 0.029629 -0.045276 0.015688 -0.083229 0.022071 -0.061163 0.084767 -0.065238 -0.027133 0.078119 -0.140592 -0.016097
7 0.017739 -0.024210 0.002030 0.056956 0.056759 0.005970 0.026191 -0.024714 0.014702 -0.027328 0.053404 0.002446 -0.020472 -0.009948 -0.000483 0.077338 -0.014109 0.003816 0.007744 0.019024 0.003516 0.012484 0.049566 -0.008498 -0.025695 0.002552 0.018420 -0.028133 -0.039700 0.063744 -0.017499 -0.019545 0.008834 0.048365 -0.003032 -0.021670 0.008835 0.012746 0.004509 0.036384 0.006512 -0.034924 -0.019033 -0.015859 0.025093 0.021096 0.011240 -0.001039 0.027735 -0.014318 0.024742 0.026222 0.021877 0.028983 -0.001100 -0.032940 0.002097 -0.037693 -0.023970 -0.005701 0.018638 -0.053763 -0.059018 -0.054809 -0.044680 0.029557 0.041562 0.013433 -0.015862 -0.034232 -0.031384 0.014904 -0.032308 0.024053 -0.040267 -0.033999 0.028763 -0.045405 0.004019 -0.032881 -0.013078 0.016727 -0.011401 -0.034596 0.010365 0.009984 -0.036469 -0.008508 0.018748 -0.030135 0.012900 -0.052590 0.010288 -0.042514 0.049351 -0.038072 -0.018899 0.047190 -0.086856 -0.007159
（ 0.009783 -0.024469 0.000142 0.046869 0.053391 0.007543 0.026734 -0.021200 0.009872 -0.022170 0.040222 -0.001532 -0.019433 -0.006467 -0.001771 0.065068 -0.015000 0.004141 0.003206 0.019092 -0.002231 0.009980 0.038365 -0.012018 -0.025117 0.001454 0.012829 -0.024947 -0.029097 0.050676 -0.013083 -0.023161 0.011103 0.036833 -0.004544 -0.020506 0.007136 0.016958 0.007475 0.036416 0.010605 -0.031908 -0.014229 -0.012763 0.025238 0.018072 0.008935 -0.002480 0.027247 -0.013130 0.027413 0.024122 0.023220 0.025924 -0.005445 -0.029626 0.008969 -0.029815 -0.016490 -0.012603 0.021033 -0.047430 -0.054160 -0.049101 -0.041958 0.025317 0.035353 0.006567 -0.018418 -0.025055 -0.031033 0.010159 -0.027537 0.028142 -0.033840 -0.022832 0.020325 -0.042625 0.006889 -0.027699 -0.006491 0.012887 -0.010060 -0.022199 0.006072 0.008356 -0.029911 -0.012673 0.020594 -0.020445 0.008697 -0.040428 0.014138 -0.029627 0.048759 -0.035037 -0.019026 0.040462 -0.071597 -0.013168
V 0.023617 -0.042031 -0.004781 0.096576 0.096518 0.017235 0.055968 -0.051076 0.021869 -0.049926 0.090834 0.004964 -0.033744 -0.011888 -0.010853 0.123682 -0.035609 -0.000802 0.009471 0.028751 0.002145 0.022051 0.080989 -0.023237 -0.045736 0.008329 0.036850 -0.050861 -0.061555 0.101897 -0.034316 -0.038117 0.013411 0.079475 -0.001877 -0.042678 0.007673 0.026350 0.018114 0.071371 0.016231 -0.067258 -0.036616 -0.020935 0.047688 0.032423 0.024178 -0.003217 0.048397 -0.017483 0.053731 0.038889 0.046925 0.051189 -0.005551 -0.055980 0.014288 -0.064554 -0.030278 -0.017507 0.045506 -0.090232 -0.108953 -0.088810 -0.077698 0.066677 0.068326 0.026011 -0.042254 -0.049998 -0.050115 0.025213 -0.056300 0.049666 -0.062454 -0.051343 0.039764 -0.089181 0.007241 -0.056146 -0.018069 0.028861 -0.020415 -0.049249 0.014793 0.027216 -0.063618 -0.016793 0.035929 -0.044089 0.024606 -0.090091 0.025765 -0.069225 0.089735 -0.079081 -0.025369 0.089300 -0.144319 -0.007958
_ 0.042920 -0.070489 0.001031 0.132783 0.143661 0.025152 0.080619 -0.078174 0.041553 -0.074090 0.130332 0.005648 -0.044907 -0.021762 -0.006825 0.184273 -0.050546 -0.005101 0.012866 0.046824 -0.008727 0.038360 0.118164 -0.024592 -0.070019 0.012694 0.047704 -0.075163 -0.092924 0.152336 -0.051445 -0.057948 0.020398 0.115466 -0.003571 -0.058501 0.014428 0.036874 0.018584 0.106870 0.024139 -0.098365 -0.055493 -0.028071 0.073767 0.037832 0.031427 -0.009110 0.072715 -0.022861 0.073105 0.057011 0.069066 0.073111 -0.014047 -0.075758 0.021815 -0.084800 -0.047251 -0.023287 0.057856 -0.144738 -0.155402 -0.131534 -0.117638 0.099375 0.100206 0.038154 -0.056365 -0.082037 -0.074076 0.048163 -0.086744 0.064575 -0.092983 -0.078380 0.056796 -0.128656 0.013410 -0.091213 -0.028106 0.045921 -0.030830 -0.081120 0.014941 0.032542 -0.096875 -0.022101 0.046651 -0.065099 0.036319 -0.134386 0.035825 -0.099753 0.135302 -0.116196 -0.044630 0.125284 -0.221219 -0.015539
； 0.017100 -0.023150 0.001054 0.040349 0.044513 0.010868 0.025961 -0.018971 0.013945 -0.021484 0.038381 0.005634 -0.011677 -0.007853 -0.007097 0.058600 -0.016763 0.001633 0.003154 0.014633 -0.000668 0.012462 0.035256 -0.004599 -0.017304 0.002181 0.014241 -0.023693 -0.029752 0.048396 -0.015497 -0.021733 0.007382 0.037532 -0.003277 -0.021247 0.007074 0.010805 0.007812 0.026800 0.007660 -0.032177 -0.016369 -0.012907 0.022809 0.009834 0.006467 -0.003583 0.020362 -0.005961 0.017259 0.020392 0.021495 0.022662 -0.005725 -0.023692 0.001491 -0.025711 -0.011682 -0.005307 0.016676 -0.045987 -0.044634 -0.035005 -0.037524 0.028375 0.026391 0.006700 -0.016138 -0.027355 -0.022800 0.008573 -0.028193 0.019934 -0.023030 -0.022133 0.014911 -0.040132 -0.002296 -0.029673 -0.007376 0.016809 -0.004405 -0.026544 0.002776 0.006919 -0.025383 -0.005720 0.018854 -0.015813 0.007697 -0.036406 0.008931 -0.025931 0.036384 -0.035805 -0.013834 0.038769 -0.065941 -0.005782
。 0.010956 -0.017419 -0.004747 0.032489 0.037833 0.001788 0.012863 -0.020452 0.007338 -0.017460 0.032682 0.006723 -0.013057 -0.004745 -0.004857 0.044230 -0.013702 0.004375 0.003249 0.014513 -0.004669 0.006594 0.032366 -0.006681 -0.014182 0.000987 0.007938 -0.020543 -0.025140 0.041671 -0.006131 -0.014779 0.005027 0.030388 -0.005344 -0.012258 -0.001314 0.010956 0.005280 0.025751 0.008353 -0.024419 -0.008642 -0.006378 0.017896 0.009001 0.005679 0.000631 0.017070 -0.006788 0.020977 0.018882 0.020556 0.018440 -0.002165 -0.019681 0.004734 -0.016053 -0.011544 -0.009371 0.011341 -0.029482 -0.041705 -0.029027 -0.027659 0.024902 0.023397 0.008856 -0.014107 -0.020827 -0.017575 0.012548 -0.020660 0.013681 -0.025842 -0.019258 0.016495 -0.032218 -0.001929 -0.021287 -0.001947 0.011362 -0.008474 -0.020659 0.008428 0.004053 -0.018369 -0.001251 0.016256 -0.016916 0.005528 -0.031364 0.009126 -0.025589 0.035059 -0.028121 -0.010529 0.034271 -0.046636 -0.000859
G 0.024572 -0.049601 0.001322 0.094980 0.105980 0.015896 0.057980 -0.055778 0.023622 -0.053137 0.099000 0.003877 -0.035431 -0.014889 -0.012971 0.131666 -0.037548 -0.000910 0.002922 0.030606 -0.005327 0.021727 0.084473 -0.019399 -0.050050 0.012547 0.037933 -0.052353 -0.060079 0.104911 -0.038525 -0.041337 0.008802 0.083711 -0.006142 -0.035730 0.015807 0.018908 0.019556 0.082942 0.018125 -0.072528 -0.040072 -0.018947 0.048277 0.033320 0.027770 -0.005689 0.055383 -0.017870 0.056546 0.037898 0.052298 0.047476 -0.008563 -0.058979 0.008768 -0.067073 -0.032569 -0.017981 0.042014 -0.097286 -0.106073 -0.096583 -0.086493 0.071294 0.065564 0.026413 -0.043129 -0.061067 -0.057047 0.030474 -0.063216 0.043822 -0.064302 -0.061827 0.042234 -0.089670 0.009062 -0.065316 -0.017827 0.037741 -0.026703 -0.058446 0.016841 0.025490 -0.066045 -0.020530 0.037389 -0.044465 0.022349 -0.090778 0.026852 -0.072473 0.089656 -0.081547 -0.035977 0.094281 -0.159378 -0.013373
： 0.009444 -0.021124 -0.000958 0.044812 0.046135 0.012035 0.026487 -0.018928 0.009869 -0.025362 0.037498 0.007528 -0.015504 -0.007103 -0.005822 0.052438 -0.011794 0.002918 0.000201 0.013003 -0.003059 0.008541 0.032750 -0.012869 -0.024220 0.001102 0.012212 -0.018870 -0.030335 0.051902 -0.014589 -0.014027 0.003867 0.039739 -0.002731 -0.017339 0.004083 0.008134 0.006309 0.033670 0.008532 -0.031520 -0.015747 -0.005639 0.017827 0.016806 0.010718 -0.007153 0.028329 -0.011347 0.018440 0.015633 0.019475 0.026573 -0.006470 -0.021434 0.006519 -0.026680 -0.018102 -0.003897 0.023394 -0.043756 -0.045565 -0.044895 -0.040108 0.025928 0.028122 0.009184 -0.019312 -0.021983 -0.022996 0.010212 -0.029720 0.025352 -0.030305 -0.024404 0.018149 -0.042736 0.002605 -0.023374 -0.006203 0.015460 -0.010534 -0.028072 0.004961 0.012251 -0.028923 -0.011010 0.019337 -0.022055 0.005490 -0.042853 0.005776 -0.030254 0.039688 -0.029969 -0.010414 0.035998 -0.071119 -0.002292
” 0.009912 -0.022980 0.000279 0.039680 0.046425 0.012189 0.026564 -0.026114 0.012622 -0.018529 0.032735 -0.002290 -0.014320 -0.005542 -0.006538 0.056157 -0.011923 0.000622 0.005376 0.008593 -0.003851 0.013771 0.033233 -0.010265 -0.015379 0.004947 0.013459 -0.016535 -0.026143 0.044951 -0.014007 -0.017537 0.003844 0.035125 0.002966 -0.018737 0.004806 0.011437 0.001459 0.035578 0.011492 -0.026803 -0.019346 -0.007278 0.019419 0.014738 0.005861 0.000404 0.024008 -0.002998 0.019523 0.020929 0.017881 0.018434 -0.004675 -0.019592 0.004937 -0.020194 -0.018601 -0.009639 0.017210 -0.035107 -0.042512 -0.040780 -0.032955 0.022594 0.027762 0.004816 -0.019442 -0.026848 -0.024471 0.006903 -0.018943 0.016665 -0.029130 -0.027155 0.013555 -0.031933 0.003722 -0.021752 -0.009246 0.017403 -0.013997 -0.024436 0.008335 0.010492 -0.021533 -0.002247 0.019302 -0.022561 0.006805 -0.036300 0.013829 -0.025157 0.038675 -0.036324 -0.012266 0.036717 -0.063201 -0.009369
B 0.026353 -0.043912 -0.005849 0.079051 0.082739 0.015594 0.045094 -0.050177 0.023510 -0.035517 0.075321 0.009064 -0.026232 -0.010847 -0.002997 0.103527 -0.028194 -0.001082 0.007868 0.027659 -0.005309 0.014817 0.062695 -0.022423 -0.041147 0.004776 0.026939 -0.040327 -0.047470 0.089184 -0.027494 -0.034922 0.011394 0.065196 0.000033 -0.036082 0.013459 0.020840 0.016947 0.064998 0.010696 -0.055795 -0.027814 -0.011955 0.039985 0.021455 0.020152 -0.005905 0.047879 -0.012125 0.044619 0.038027 0.037957 0.039729 -0.008050 -0.047307 0.004989 -0.048338 -0.024767 -0.015809 0.031316 -0.082770 -0.089493 -0.079124 -0.062933 0.055291 0.056861 0.016166 -0.033745 -0.045937 -0.050104 0.029987 -0.043620 0.038823 -0.056876 -0.049109 0.037544 -0.071428 0.009718 -0.053062 -0.018175 0.026664 -0.015720 -0.049436 0.010334 0.016178 -0.058777 -0.012831 0.027978 -0.035477 0.020175 -0.073714 0.021862 -0.057190 0.077843 -0.063218 -0.026454 0.075241 -0.128759 -0.009613
“ 0.007418 -0.020402 -0.004794 0.041265 0.046424 0.005947 0.025922 -0.018649 0.015216 -0.023404 0.042019 0.007540 -0.014720 -0.005013 -0.000375 0.057262 -0.016137 -0.000800 0.008147 0.015706 -0.004684 0.008705 0.037875 -0.011961 -0.023036 0.001447 0.015726 -0.020506 -0.030148 0.046531 -0.017427 -0.016515 0.010377 0.031521 -0.005686 -0.016769 0.006076 0.005308 0.002424 0.035417 0.011027 -0.029093 -0.014462 -0.006212 0.016458 0.008859 0.010188 0.000021 0.022874 -0.002414 0.023008 0.018992 0.014668 0.017596 0.000697 -0.019368 0.000533 -0.022576 -0.018500 -0.001641 0.013141 -0.043215 -0.049377 -0.040019 -0.035497 0.030964 0.028887 0.005780 -0.018450 -0.027181 -0.025066 0.014489 -0.023137 0.022917 -0.030929 -0.021390 0.019588 -0.038334 -0.001489 -0.027799 -0.012475 0.016405 -0.011986 -0.025595 0.006557 0.013640 -0.022259 -0.004096 0.019863 -0.021928 0.007566 -0.034434 0.010078 -0.029659 0.036021 -0.031274 -0.015713 0.038077 -0.060881 -0.007277
* 0.024353 -0.038365 0.005440 0.065444 0.073365 0.014093 0.028271 -0.039014 0.010189 -0.035949 0.070030 0.009420 -0.024133 -0.012616 -0.002433 0.082554 -0.023449 -0.000612 -0.000631 0.013288 -0.001843 0.009932 0.059020 -0.008459 -0.031039 0.010143 0.031222 -0.041261 -0.047916 0.069987 -0.029672 -0.032240 0.007119 0.057180 -0.001940 -0.031908 0.009492 0.016378 0.018479 0.053226 0.009276 -0.053675 -0.032434 -0.012584 0.028642 0.018661 0.014188 0.002808 0.034462 -0.009532 0.030348 0.036096 0.025305 0.039839 -0.006053 -0.037782 0.003970 -0.037167 -0.025888 -0.008533 0.033218 -0.074500 -0.071504 -0.069139 -0.058924 0.039197 0.051714 0.023482 -0.022253 -0.030835 -0.036866 0.025545 -0.040814 0.035295 -0.037148 -0.036408 0.024427 -0.061662 0.006152 -0.040207 -0.011684 0.027198 -0.009130 -0.029935 0.001896 0.009452 -0.045755 -0.005934 0.024164 -0.035540 0.008101 -0.054093 0.017241 -0.048139 0.053703 -0.057194 -0.024055 0.055594 -0.108510 -0.015009
= 0.025359 -0.042081 -0.004011 0.077562 0.077579 0.016357 0.037171 -0.038923 0.020005 -0.042153 0.077669 0.002734 -0.027990 -0.010443 -0.006186 0.103619 -0.027351 0.003434 0.010752 0.020729 0.002398 0.017764 0.059136 -0.013120 -0.038666 0.005447 0.032413 -0.040733 -0.054247 0.083357 -0.027933 -0.029407 0.009133 0.060156 -0.000532 -0.030553 0.009279 0.021965 0.007173 0.059520 0.009493 -0.050684 -0.024628 -0.017300 0.043257 0.020131 0.016519 -0.009398 0.038710 -0.016811 0.041696 0.036377 0.034324 0.035619 -0.009531 -0.039202 0.012968 -0.052948 -0.027075 -0.015080 0.028701 -0.080015 -0.081026 -0.073230 -0.062451 0.048474 0.057950 0.021252 -0.032640 -0.048357 -0.041990 0.026835 -0.048460 0.042523 -0.053851 -0.041880 0.030709 -0.071876 0.008863 -0.050026 -0.018779 0.027966 -0.016560 -0.046385 0.010660 0.021756 -0.055081 -0.012694 0.030307 -0.040263 0.013661 -0.067622 0.018844 -0.050289 0.074683 -0.064210 -0.019681 0.073247 -0.117782 -0.007186
K 0.019580 -0.033440 -0.003498 0.066476 0.071149 0.014984 0.034260 -0.040063 0.019840 -0.036872 0.062148 0.003616 -0.018119 -0.005294 -0.000602 0.085336 -0.025357 -0.005026 0.007789 0.020584 0.001510 0.014997 0.053381 -0.016838 -0.029541 0.003483 0.027955 -0.032203 -0.042369 0.072178 -0.019117 -0.025342 0.012888 0.053151 -0.007497 -0.030384 0.009460 0.011920 0.011020 0.052919 0.013582 -0.049355 -0.023888 -0.012857 0.031997 0.021082 0.012106 -0.001985 0.034469 -0.013444 0.029776 0.031770 0.034835 0.034458 -0.004161 -0.039805 0.009617 -0.040983 -0.023837 -0.009766 0.032223 -0.063201 -0.071149 -0.064708 -0.050745 0.044620 0.045640 0.012471 -0.027341 -0.037845 -0.033658 0.023885 -0.036266 0.032039 -0.047579 -0.035704 0.027041 -0.060043 0.008951 -0.039012 -0.016820 0.022556 -0.012960 -0.038913 0.009441 0.018249 -0.043205 -0.006415 0.028024 -0.035326 0.017350 -0.055471 0.020238 -0.047594 0.062417 -0.054604 -0.016717 0.057665 -0.099152 -0.005602
? 0.031126 -0.046290 -0.004193 0.089720 0.096193 0.013313 0.047354 -0.050906 0.027332 -0.046534 0.086066 0.004432 -0.032566 -0.013677 -0.005334 0.111986 -0.025794 0.001635 0.007017 0.026102 0.000662 0.018793 0.076450 -0.020205 -0.044139 0.015421 0.036791 -0.051965 -0.060119 0.100931 -0.033073 -0.031398 0.009558 0.069961 -0.001674 -0.033579 0.006889 0.022719 0.018390 0.065979 0.012745 -0.063513 -0.037596 -0.022667 0.050302 0.029405 0.017802 -0.010403 0.049476 -0.014097 0.046736 0.042153 0.040627 0.043049 -0.003191 -0.049759 0.010244 -0.062188 -0.028462 -0.010671 0.038235 -0.091311 -0.094377 -0.083848 -0.072474 0.061196 0.064059 0.021182 -0.034092 -0.055776 -0.046318 0.023419 -0.054808 0.041607 -0.064173 -0.051667 0.033933 -0.077366 0.008596 -0.055167 -0.017777 0.030378 -0.024686 -0.052770 0.008552 0.018690 -0.055601 -0.018112 0.031733 -0.047427 0.020099 -0.087269 0.027734 -0.060570 0.081790 -0.075960 -0.023173 0.079469 -0.144248 -0.010668
F 0.022171 -0.035729 -0.003322 0.069394 0.070662 0.010708 0.042903 -0.035613 0.015315 -0.037973 0.070862 0.003093 -0.020308 -0.014048 -0.007481 0.087938 -0.021377 -0.005302 0.001633 0.021520 0.000363 0.016123 0.054091 -0.013708 -0.032865 0.005158 0.028211 -0.041143 -0.042022 0.079050 -0.026904 -0.027706 0.004626 0.055237 -0.004485 -0.031933 0.005125 0.017486 0.010178 0.056331 0.015263 -0.053565 -0.026602 -0.018153 0.037461 0.016841 0.017923 -0.008801 0.039317 -0.011088 0.037929 0.033553 0.038303 0.033803 -0.007373 -0.043418 0.005237 -0.045173 -0.024140 -0.013987 0.029026 -0.074160 -0.074899 -0.070240 -0.056514 0.052600 0.048103 0.017212 -0.024498 -0.036003 -0.039970 0.019924 -0.041874 0.032672 -0.051735 -0.042887 0.028388 -0.060022 0.007859 -0.047324 -0.017551 0.023943 -0.013010 -0.035350 0.011823 0.012742 -0.042878 -0.013218 0.029903 -0.039268 0.018775 -0.070650 0.022023 -0.048628 0.066012 -0.055073 -0.020165 0.063154 -0.107984 -0.005715
— 0.014095 -0.023956 0.000809 0.050443 0.057939 0.009685 0.030737 -0.025706 0.011662 -0.030708 0.052675 -0.000765 -0.017643 -0.008498 -0.005559 0.065744 -0.015625 -0.003636 0.006904 0.015861 -0.004542 0.013720 0.042402 -0.016309 -0.023860 0.002512 0.017957 -0.024846 -0.030228 0.060165 -0.021751 -0.026630 0.006880 0.038263 -0.001200 -0.020197 0.007163 0.014574 0.003418 0.045923 0.012018 -0.037573 -0.016549 -0.013806 0.023877 0.012719 0.011662 -0.001902 0.033848 -0.004303 0.022508 0.023007 0.027411 0.028999 -0.001480 -0.031176 0.005307 -0.037000 -0.018486 -0.003325 0.027714 -0.055108 -0.057129 -0.054416 -0.045440 0.040168 0.036405 0.014954 -0.015929 -0.033404 -0.031557 0.020736 -0.034550 0.023552 -0.033077 -0.030726 0.026455 -0.050276 0.004021 -0.032209 -0.015871 0.023506 -0.016374 -0.032651 0.005623 0.008400 -0.037627 -0.003953 0.024565 -0.023110 0.014717 -0.053393 0.016734 -0.039649 0.047537 -0.038073 -0.022042 0.047362 -0.085572 -0.012368
Z 0.011628 -0.023180 -0.005630 0.050239 0.048968 0.013322 0.020073 -0.024780 0.010404 -0.021130 0.048048 0.003889 -0.018489 -0.006695 -0.006964 0.060436 -0.012874 0.003120 0.000612 0.014529 -0.002814 0.008640 0.037952 -0.005172 -0.023605 0.007928 0.020280 -0.027242 -0.031575 0.050604 -0.010593 -0.015169 0.001593 0.040368 -0.000538 -0.014638 0.006733 0.007493 0.008340 0.031949 0.003794 -0.035765 -0.021171 -0.013721 0.022347 0.015486 0.014427 -0.003584 0.022237 -0.012348 0.025051 0.022257 0.026747 0.020658 -0.006549 -0.028907 0.006560 -0.030087 -0.017523 -0.007515 0.018001 -0.042423 -0.048224 -0.042835 -0.034816 0.032088 0.032941 0.010293 -0.017969 -0.026898 -0.025428 0.014139 -0.027539 0.024121 -0.030302 -0.030334 0.019834 -0.038849 0.005914 -0.031701 -0.008342 0.014804 -0.013612 -0.026990 0.008020 0.014137 -0.027189 -0.005657 0.019740 -0.025393 0.007173 -0.038677 0.009393 -0.027398 0.045217 -0.038064 -0.017731 0.036891 -0.069489 -0.005358
X 0.004943 -0.014260 -0.004350 0.024598 0.026472 0.002635 0.017045 -0.016658 0.003972 -0.007107 0.020341 0.000167 -0.007288 -0.004695 -0.001878 0.026368 -0.009059 0.004467 0.005170 0.005202 0.001336 0.010336 0.015254 -0.005672 -0.009221 0.002060 0.006200 -0.015224 -0.018605 0.027125 -0.005336 -0.008314 0.003662 0.023048 -0.003373 -0.005350 0.002696 0.002882 0.001879 0.022903 0.009163 -0.019503 -0.010623 -0.008356 0.016182 0.003576 0.006219 -0.000230 0.018076 -0.005094 0.009543 0.008231 0.010904 0.010429 0.001014 -0.010759 0.004721 -0.015565 -0.007931 -0.000401 0.014370 -0.022063 -0.028352 -0.020219 -0.018171 0.018791 0.014699 0.003551 -0.008341 -0.010123 -0.014712 0.006206 -0.010186 0.006976 -0.018600 -0.010880 0.014650 -0.020503 -0.000922 -0.011427 0.000352 0.013317 -0.002262 -0.009260 -0.001538 0.005850 -0.020491 -0.002176 0.011048 -0.013935 0.003873 -0.020282 0.005694 -0.014588 0.024279 -0.017969 -0.008266 0.024958 -0.032219 0.001253
Q 0.008667 -0.013686 0.000513 0.033697 0.033443 0.006277 0.022604 -0.022496 0.009885 -0.017115 0.028975 0.000448 -0.009746 -0.000296 -0.006430 0.039422 -0.008409 -0.001009 0.000709 0.005562 -0.000671 0.012393 0.030984 -0.009707 -0.016666 0.006560 0.012848 -0.013172 -0.023679 0.034078 -0.007848 -0.016915 0.006114 0.031196 -0.000247 -0.017332 0.002729 0.013171 0.008714 0.025608 0.009014 -0.026436 -0.013310 -0.008794 0.018309 0.010376 0.012694 -0.003804 0.020273 -0.003698 0.020560 0.012657 0.015713 0.020463 -0.001333 -0.020443 -0.000817 -0.023688 -0.016538 -0.008511 0.014785 -0.039100 -0.041688 -0.030383 -0.033060 0.023258 0.022967 0.005976 -0.009517 -0.021662 -0.024212 0.011191 -0.018062 0.018836 -0.020402 -0.018233 0.013599 -0.032339 -0.001581 -0.024727 -0.011493 0.008776 -0.008194 -0.021224 0.001332 0.013482 -0.026717 -0.007125 0.008711 -0.020458 0.006661 -0.030922 0.011860 -0.026588 0.029810 -0.027157 -0.014542 0.026509 -0.051731 -0.000728
, 0.002850 -0.003110 -0.003373 0.008032 0.006872 0.003608 0.002771 -0.000862 0.004779 -0.007631 0.012079 0.002879 -0.006069 -0.001593 0.000082 0.015090 -0.006604 -0.001016 -0.000518 0.005327 -0.000154 -0.001982 0.010365 -0.005634 -0.003291 -0.003418 0.004003 -0.003894 0.000023 0.005454 0.000182 0.000819 -0.001949 0.001857 -0.001690 -0.005282 0.005642 0.002225 -0.001110 0.007638 -0.000270 -0.001894 -0.001543 -0.001397 0.007153 -0.002584 0.002053 0.004170 0.001096 0.003242 0.004791 0.008305 0.005861 0.003899 0.001291 -0.005533 0.003059 -0.004463 -0.001147 0.000924 0.007284 -0.004653 -0.009319 -0.005698 -0.004559 0.005887 0.008194 -0.002069 0.001140 0.000490 -0.003933 0.000625 -0.001214 0.000813 -0.007145 -0.006536 0.004874 -0.004228 -0.003844 -0.000301 -0.005420 -0.000876 0.002358 -0.001680 -0.000507 0.006190 -0.003768 -0.001646 0.000924 -0.008154 0.002728 -0.010019 -0.000311 -0.009969 0.008236 -0.004158 -0.005045 0.009165 -0.016143 -0.000031
# 0.017165 -0.027619 -0.004500 0.055036 0.057578 0.009625 0.027523 -0.030460 0.012013 -0.026448 0.055249 0.008625 -0.017460 -0.003213 -0.002031 0.068440 -0.015949 0.002183 0.009080 0.019696 0.000814 0.009237 0.049286 -0.007148 -0.029092 0.002226 0.022233 -0.031463 -0.034087 0.062447 -0.020515 -0.022890 0.007781 0.049864 0.002321 -0.018626 0.006371 0.009470 0.011936 0.044769 0.006734 -0.041136 -0.024724 -0.008155 0.026454 0.012193 0.007765 -0.007900 0.032962 -0.006545 0.028830 0.026424 0.021670 0.026545 -0.002105 -0.031594 0.003855 -0.035388 -0.020800 -0.012232 0.020528 -0.059941 -0.065377 -0.055864 -0.047181 0.034573 0.034539 0.018233 -0.017368 -0.036426 -0.033348 0.021485 -0.034232 0.021916 -0.035574 -0.028255 0.018640 -0.053668 -0.000332 -0.029661 -0.009266 0.020628 -0.015189 -0.031379 0.002548 0.018699 -0.036484 -0.009435 0.023625 -0.024527 0.018615 -0.054277 0.017601 -0.042615 0.050508 -0.039995 -0.016984 0.050439 -0.088154 -0.003313
) 0.005821 -0.014374 0.000559 0.025000 0.029147 0.003757 0.015306 -0.015059 0.009132 -0.010256 0.018486 0.000720 -0.007437 0.000146 0.000841 0.028730 -0.006596 -0.005133 -0.001767 0.004434 -0.000421 0.002546 0.014296 -0.003062 -0.014637 0.004961 0.007702 -0.014746 -0.016799 0.022698 -0.007187 -0.013889 0.004209 0.023421 -0.004746 -0.012060 -0.002382 0.002816 0.004979 0.020067 0.000710 -0.014953 -0.009109 -0.009310 0.016870 0.006724 0.002502 0.002329 0.011078 -0.003930 0.009065 0.008521 0.014434 0.012245 0.002237 -0.010419 0.001301 -0.013638 -0.006588 -0.000861 0.010393 -0.028404 -0.027006 -0.017730 -0.015356 0.015612 0.017914 0.009521 -0.011752 -0.015134 -0.014301 0.003900 -0.017189 0.008189 -0.011709 -0.009990 0.009946 -0.025603 -0.000955 -0.009910 -0.002046 0.004058 -0.001505 -0.014502 0.000873 0.003859 -0.015013 -0.007108 0.004671 -0.015658 0.008882 -0.023052 0.003419 -0.020193 0.022279 -0.023193 -0.012003 0.017684 -0.033821 -0.002880
% -0.002315 -0.007194 -0.001344 0.008807 0.005193 0.004767 -0.000656 -0.004776 0.005886 0.002407 0.001001 -0.002520 -0.000791 -0.001893 0.001357 0.009231 -0.006209 0.002946 -0.002945 0.005988 -0.000097 0.001055 0.003099 -0.000251 0.002413 -0.000725 0.004036 -0.001185 -0.008094 0.000630 -0.000919 -0.002564 -0.002180 0.003658 0.004059 -0.006463 0.002593 -0.003321 -0.000754 -0.000257 -0.002425 -0.008580 -0.006380 -0.005963 0.007079 -0.001363 0.003163 -0.001179 0.005843 0.000637 -0.000397 0.000354 -0.002130 0.004763 0.000755 -0.004610 -0.000545 -0.002868 -0.004529 0.001473 0.000373 -0.006551 -0.009196 -0.000180 -0.007998 -0.001036 0.007123 0.001814 0.001743 -0.001900 0.000596 -0.001719 0.000306 0.003207 0.000226 -0.003528 0.005760 -0.002206 0.003171 -0.007495 -0.000651 0.004249 -0.004936 -0.001921 -0.000723 0.004708 -0.006912 0.003901 0.001377 -0.003286 0.001829 -0.006999 0.003156 -0.003246 0.004364 -0.004330 -0.002522 0.002283 -0.009600 0.003434
( 0.001847 -0.008309 0.001996 0.014451 0.016130 0.006422 0.005102 -0.003596 -0.001032 -0.005197 0.013437 0.005468 -0.007071 -0.001200 -0.002925 0.017103 -0.008135 -0.001433 0.003728 0.004139 0.004128 -0.002276 0.013987 -0.003244 -0.003994 0.004949 0.006665 -0.003516 -0.007026 0.015794 -0.008171 -0.008709 0.001978 0.011115 -0.000247 -0.003297 -0.000804 0.007811 0.004466 0.009106 -0.003009 -0.006345 -0.007578 0.001098 0.004844 0.000190 0.001096 0.000354 0.004636 -0.003245 0.003328 0.007917 0.000145 0.006938 0.004060 -0.004257 0.003543 -0.008886 -0.001412 -0.003298 0.003972 -0.015446 -0.009703 -0.013016 -0.006685 0.011443 0.012465 0.001433 -0.001326 -0.010751 -0.008512 0.007852 -0.004760 0.002893 -0.003417 -0.002520 0.008709 -0.012675 -0.002988 -0.007485 0.002783 0.002346 -0.005523 -0.009367 0.004080 0.001955 -0.012041 0.000125 0.006971 -0.003538 -0.000221 -0.006957 -0.001703 -0.011936 0.005736 -0.007012 -0.008089 0.007258 -0.014818 -0.003627
！ 0.002205 0.001311 -0.002269 0.003059 0.008473 0.001412 0.006839 -0.002559 0.005467 -0.005727 0.002879 0.001584 -0.001986 -0.004436 0.002943 0.002053 -0.003376 0.004062 0.004484 -0.002204 -0.004737 0.003593 0.003812 -0.003879 0.001558 -0.001302 0.003369 -0.005103 -0.003552 0.002542 -0.002024 -0.005846 -0.004081 0.005912 -0.000341 -0.006638 -0.001239 -0.001067 0.004872 0.001188 -0.000329 0.000180 -0.001642 0.000654 0.006944 0.002481 0.003191 -0.004247 0.003661 -0.005865 0.003224 0.005166 0.006465 -0.000906 0.004179 -0.004961 0.000498 -0.003246 -0.006058 0.002400 0.001285 -0.008970 -0.004030 -0.006422 -0.000483 0.008008 -0.001380 0.000929 0.000033 0.001866 -0.002689 0.003757 -0.007892 -0.002156 -0.000242 -0.006882 0.001517 -0.002443 0.003129 -0.000685 0.001971 -0.002195 -0.005450 -0.004084 -0.004269 -0.001566 -0.006346 0.001019 0.003106 0.000986 0.000661 -0.009005 0.002146 -0.004366 0.007687 -0.007796 -0.006222 0.006035 -0.009973 0.000140
+ -0.001713 0.000780 -0.003675 0.004587 0.009198 -0.002039 0.002738 -0.006114 0.007106 -0.003274 0.010475 -0.003376 -0.006521 -0.005788 0.002069 0.007916 -0.002964 0.000794 0.002078 0.005099 0.000779 -0.001153 0.004395 -0.006402 -0.002385 0.000150 0.004819 -0.007663 -0.001601 0.013599 -0.005287 -0.003874 0.002123 0.006194 -0.003007 -0.008179 0.001912 -0.002838 -0.000237 0.003740 -0.001684 -0.007717 -0.002062 -0.004219 0.004812 0.000076 -0.001978 -0.000127 0.003445 -0.000299 -0.000690 0.006381 0.004454 0.002969 0.000644 -0.004335 0.000204 -0.005448 0.001046 0.000347 0.004306 -0.005875 -0.010049 -0.008511 -0.009102 0.008260 0.010067 0.004283 -0.007963 -0.006263 -0.004828 0.004093 -0.000519 0.006054 -0.004022 -0.002718 0.001499 -0.008504 -0.001683 -0.008605 -0.002490 0.001689 -0.002911 -0.003103 0.003481 0.004699 -0.007698 -0.001064 0.001018 -0.004719 -0.003019 -0.010684 0.000073 -0.005325 0.007146 -0.005198 -0.003352 0.009760 -0.016363 0.002097
J 0.003288 -0.003628 -0.000558 0.010235 0.004377 -0.001734 0.006375 0.001431 -0.000478 0.000762 0.006074 -0.001975 0.001799 0.002485 0.000191 0.009584 -0.004830 0.004097 -0.003952 -0.001498 -0.001836 0.005905 0.007316 0.001204 -0.002153 -0.004239 0.004023 -0.005088 -0.007091 0.001902 -0.001106 -0.004674 0.002532 0.005584 -0.004277 -0.003946 -0.003543 0.003449 0.005049 0.001899 0.001447 -0.008612 -0.001284 0.000035 0.000682 -0.002772 0.000481 -0.004399 0.007964 -0.003221 0.006401 -0.002047 0.006576 0.007381 0.000781 -0.006497 0.002462 -0.006690 -0.006144 -0.005157 -0.002215 -0.007928 -0.002667 -0.004000 -0.001786 0.007847 0.002658 0.005719 -0.006439 0.000139 -0.002749 -0.002989 -0.005069 0.005213 -0.003206 -0.001713 0.005089 -0.002137 -0.003508 -0.001119 -0.002008 -0.002646 0.003409 -0.001857 0.003175 0.003382 -0.004866 -0.002258 -0.002631 -0.005978 0.004199 -0.001048 0.000177 -0.007523 0.003626 0.000200 -0.001689 0.009005 -0.011554 -0.002199
？ -0.003604 0.002059 0.000831 -0.001111 0.004756 -0.002546 0.000489 0.002683 -0.001560 -0.001671 0.001490 0.000577 -0.001129 -0.004768 -0.004787 -0.001214 0.003919 -0.004369 -0.000542 0.000550 0.003418 0.001874 0.005805 0.003035 0.001140 -0.003884 -0.001343 -0.001483 -0.001241 0.000305 0.001789 -0.001967 -0.001843 0.005527 0.001821 0.002445 -0.003126 0.001695 0.003703 0.005615 0.002905 -0.002591 -0.005722 0.000861 0.001749 0.004248 0.004359 -0.003344 -0.001709 -0.004941 0.003979 -0.001912 0.006177 0.005600 -0.004178 0.000057 -0.003043 -0.002492 -0.000185 0.000371 0.003250 -0.001389 -0.003530 -0.004689 -0.002510 0.001712 -0.000869 -0.002119 -0.004224 0.000153 -0.000211 0.003989 -0.005323 0.003240 -0.005045 -0.001100 -0.001920 0.001887 -0.000004 0.001612 0.002817 0.003121 -0.001328 -0.004412 0.002684 0.003569 -0.002272 -0.002783 -0.003709 -0.006049 0.003851 -0.005451 0.002209 -0.006070 0.003447 -0.002692 -0.005759 0.001349 -0.004702 -0.003663
" -0.001511 -0.002356 0.001936 0.006452 0.011640 0.004586 0.001544 -0.002769 0.001998 -0.003454 0.009138 0.004681 -0.005266 0.001176 0.000294 0.005241 -0.006737 0.000583 -0.001603 -0.001029 -0.004213 -0.000654 0.010659 -0.000604 -0.000822 -0.003625 0.002444 -0.007074 -0.001152 0.008879 -0.001329 -0.004497 -0.002547 0.007812 -0.000539 -0.001853 0.001213 0.001980 0.001367 0.006157 -0.001938 -0.006653 -0.001570 -0.001189 0.004618 0.006966 0.002345 -0.004558 0.007974 -0.001775 0.005006 0.000299 0.007527 0.002102 0.000304 -0.005992 0.004740 -0.005763 -0.004459 -0.002391 0.005482 -0.010009 -0.008560 -0.005930 -0.004993 0.004348 0.002077 0.004709 -0.004906 -0.004082 -0.003290 -0.002488 -0.009008 0.002572 -0.006305 -0.007147 0.000190 -0.008441 0.003102 -0.002786 0.003270 0.004598 -0.005657 -0.004367 -0.002306 -0.002550 -0.001054 -0.003079 0.006297 -0.005755 0.001259 -0.006915 0.001925 -0.001376 0.008741 -0.005484 0.002329 0.005645 -0.010777 0.002601
－ 0.003382 -0.005401 0.004326 -0.001073 0.000113 -0.004297 -0.001407 0.000736 -0.003269 -0.000669 0.005852 -0.003586 -0.005346 -0.004082 -0.004766 0.005990 0.001560 0.001228 -0.004581 -0.002760 0.001137 0.004935 0.002967 0.002923 -0.004666 -0.002413 0.003822 -0.003111 0.002932 -0.000236 -0.004204 0.000771 0.002099 -0.002322 -0.000722 0.002841 -0.004303 0.000408 0.002163 0.005268 0.002926 0.000177 0.001438 0.002530 -0.002425 0.001698 0.004764 0.001984 0.005272 0.001058 -0.000332 -0.003584 0.004345 0.005508 -0.000979 0.002277 0.005173 0.002004 0.001510 -0.001934 0.005144 0.000162 -0.006332 0.001225 0.000690 0.000702 0.001906 -0.000483 -0.005265 -0.005363 -0.006555 -0.000889 -0.003911 -0.002039 0.002553 0.002751 0.005848 -0.002982 0.004770 -0.005046 -0.002167 -0.001907 0.001379 -0.003874 0.003343 0.002228 -0.002698 0.002657 0.002350 -0.000271 0.005045 -0.006190 0.001150 -0.003458 0.004256 -0.001230 -0.003832 0.003168 -0.006544 0.004348
& 0.000354 -0.005273 -0.003528 0.009308 0.012272 0.000345 0.006992 -0.005110 0.001843 -0.006109 0.010336 0.003348 -0.005021 0.001131 -0.002744 0.021015 -0.002199 0.000906 0.001572 0.002831 -0.002660 -0.000102 0.015152 -0.005684 -0.008924 0.003810 0.000719 -0.009018 -0.007257 0.018074 -0.005202 -0.003035 0.000279 0.011414 -0.002075 -0.007624 0.002492 0.005050 0.001313 0.007235 0.004437 -0.005282 -0.008540 -0.001221 0.008698 0.001222 0.002684 -0.001582 0.004196 -0.005237 0.004032 0.003060 0.007900 0.009181 -0.004909 -0.003315 0.003607 -0.007111 -0.000629 -0.004108 0.006636 -0.008381 -0.018766 -0.013178 -0.014942 0.004330 0.006940 0.001959 -0.000118 -0.004233 -0.006855 0.006767 -0.011600 0.001511 -0.011740 -0.005036 0.009055 -0.008376 0.001979 -0.009650 -0.000685 0.007410 -0.008026 -0.002179 0.001370 0.002503 -0.010103 -0.004973 0.007893 -0.005855 0.001686 -0.007737 0.007586 -0.012040 0.016137 -0.010959 -0.000938 0.009472 -0.018620 0.001996
﻿ -0.003548 0.001673 -0.002151 0.001542 -0.002383 -0.001348 -0.001256 0.004263 0.002016 -0.000496 0.000343 0.002807 0.003227 -0.002233 0.002750 0.001484 0.001853 0.002330 -0.000089 0.001121 -0.004639 0.004581 0.001713 -0.002849 -0.004705 -0.004096 0.002990 -0.001174 0.004021 -0.002527 0.001555 0.003705 0.001570 0.000779 0.004228 -0.004024 -0.001849 -0.000288 -0.002930 -0.003648 0.000839 -0.000338 -0.004619 0.001106 -0.000751 -0.001715 0.002510 -0.001111 -0.004431 -0.001424 0.000935 0.001359 -0.001075 0.002502 -0.002309 -0.004877 -0.002591 0.001465 0.002807 -0.001400 0.000887 -0.001358 0.000328 -0.004701 -0.001106 0.004368 -0.001539 0.000302 -0.001218 0.001565 0.002101 0.002353 -0.000799 0.004272 -0.000221 0.003967 -0.004502 -0.001506 -0.000015 0.003225 0.004151 0.000034 -0.001820 -0.002765 -0.000767 0.000968 -0.003982 -0.003647 -0.004322 -0.002783 -0.001933 0.004135 0.002610 -0.001535 -0.000788 0.002316 -0.001477 -0.004456 -0.002364 0.003838
> 0.003100 -0.005539 -0.002110 0.005214 0.000759 0.004240 0.003053 -0.003951 -0.003188 -0.003040 0.008976 -0.004361 -0.003665 -0.001167 -0.005102 0.009221 -0.003107 0.003723 0.004978 0.000307 -0.004773 0.001860 0.002523 -0.005012 -0.004540 0.001733 -0.001027 0.002083 -0.000676 0.005897 0.002306 0.001052 0.003019 0.003352 0.000536 -0.001617 -0.003422 -0.003662 -0.003709 0.004412 0.001631 -0.003808 0.001882 -0.001400 0.005694 0.005764 0.001158 -0.003789 0.004259 0.001015 -0.002385 0.003759 -0.001866 -0.001327 -0.001949 0.001393 -0.000762 0.002308 -0.000722 -0.004308 0.006646 -0.000629 -0.003743 -0.004175 -0.003052 -0.001945 0.001932 0.002454 -0.001079 -0.006561 -0.001706 0.002290 -0.002909 0.004548 0.001468 -0.006109 0.000534 -0.005791 0.001134 -0.002924 0.003422 0.001790 -0.003371 -0.006260 0.004355 0.000299 -0.005593 -0.003386 0.002701 -0.001916 -0.001918 -0.004625 -0.000722 -0.003788 -0.000058 0.000690 0.002871 0.005227 -0.011448 -0.004348
[ 0.002901 -0.001713 0.003918 0.008526 0.009189 -0.000394 0.005133 -0.002846 -0.001103 0.000311 0.004182 -0.004182 0.000096 0.003016 0.003708 0.009168 -0.001429 -0.001348 0.003879 -0.003196 0.003666 0.004630 0.003004 -0.001308 -0.003878 -0.004224 -0.001599 -0.001485 -0.002815 0.002504 -0.005896 -0.000930 0.004531 0.001103 -0.003023 -0.002942 0.004461 0.000085 -0.000858 0.001981 0.000365 -0.006468 0.001262 -0.005422 0.007028 0.003729 0.005685 -0.000975 0.000648 -0.002185 -0.002172 0.004214 0.000074 0.000655 0.003586 -0.004688 0.005385 -0.000505 -0.000024 -0.001141 0.001346 -0.003060 -0.005843 -0.008112 -0.002137 0.000889 0.003155 -0.000424 -0.001130 -0.002205 0.000001 0.005142 -0.003187 0.007237 -0.003031 -0.003117 0.007165 -0.008854 -0.002928 -0.004222 -0.003887 -0.003139 -0.004620 -0.003845 -0.003772 0.000121 -0.004149 0.002601 0.004479 -0.003557 0.003681 -0.005601 -0.003219 0.001556 0.003539 -0.000385 0.002781 0.001427 -0.006009 -0.003822
～ -0.003456 0.001105 -0.001491 -0.003536 0.004060 -0.001093 -0.002515 0.000793 -0.003972 -0.000951 -0.002745 -0.003831 -0.001487 -0.004849 0.004099 -0.001598 0.001462 -0.002810 0.000105 -0.000770 -0.000035 -0.000328 -0.000943 0.002792 -0.003623 -0.002079 0.002665 0.003110 -0.003240 0.003277 0.003943 0.003789 -0.002993 0.005377 0.004217 -0.003994 0.000776 0.003410 0.004993 0.004819 -0.003773 0.000249 -0.004075 -0.000388 -0.001558 0.004304 -0.003011 0.002750 -0.002214 -0.000622 0.004345 -0.002736 -0.002690 0.001068 0.001604 -0.000730 -0.000571 -0.003546 0.004071 0.001800 -0.001815 -0.002964 0.001056 -0.005231 -0.003083 -0.002593 -0.002979 -0.000772 -0.001056 0.003077 -0.003374 -0.000953 -0.000025 0.000744 -0.002512 0.000732 -0.002014 -0.005582 0.003103 -0.003588 0.004229 -0.001097 -0.002492 0.001431 -0.002555 0.003671 -0.002182 -0.004466 -0.000128 0.000300 -0.003010 0.003897 -0.002352 0.004103 0.004826 0.002328 -0.000348 -0.002257 -0.001932 0.003371
】 0.002268 -0.001827 0.002680 -0.003091 0.002848 0.001234 -0.003037 -0.004111 -0.004212 0.001316 0.002813 0.004026 -0.001630 0.000417 0.000020 0.003894 0.003691 -0.001207 0.001013 -0.004789 0.002319 0.005007 0.004807 -0.005029 0.002197 -0.002394 0.003958 0.004275 0.001646 0.005053 0.000445 -0.002306 -0.004580 -0.002740 0.001986 0.002044 -0.001837 -0.002696 0.001244 -0.000027 -0.002074 -0.005179 0.004455 -0.003377 0.005043 -0.003984 0.000649 -0.001574 -0.003779 0.001943 -0.001078 -0.003792 0.002804 0.002874 0.002891 0.000832 0.000331 0.002893 0.003207 -0.001639 0.004978 -0.003601 -0.005211 -0.003864 0.003885 0.002204 0.002863 0.004216 0.001938 0.002887 0.000090 0.005131 -0.002776 -0.000381 -0.001043 0.000631 0.000748 0.001972 -0.004872 -0.002602 0.002747 0.003016 0.003083 -0.004138 0.003572 0.003884 0.004365 0.001139 -0.004124 0.001386 -0.000917 -0.000739 0.005042 -0.001844 -0.003098 -0.005049 0.000624 0.005261 -0.003783 -0.003180
卡 -0.004654 0.003540 0.002861 0.002886 -0.001831 0.003214 0.004571 -0.001365 -0.001143 -0.003710 -0.003910 -0.002566 -0.000850 0.001511 -0.004959 -0.004821 0.003710 0.004403 -0.002765 -0.002839 0.003837 0.004832 -0.004886 -0.003429 -0.000826 -0.002893 0.000506 0.004648 -0.002440 -0.004282 -0.001288 -0.004173 -0.003180 -0.002813 -0.003469 -0.002473 -0.000987 -0.001656 0.003880 0.001149 0.001128 -0.002485 -0.001552 0.003161 0.001779 0.004250 0.003504 0.002818 -0.001668 0.002621 -0.001152 -0.001943 0.000703 -0.000109 0.000163 0.001976 0.000447 0.004175 -0.001701 0.002960 -0.004718 -0.000549 -0.002671 -0.000671 0.003777 0.004169 0.001789 0.004951 -0.003335 0.000887 0.001294 0.001117 -0.000914 -0.002054 0.003012 -0.000641 0.004833 0.001575 -0.000964 -0.004050 0.001021 -0.000423 -0.003728 -0.002101 -0.001348 0.001959 -0.002482 0.004736 -0.004310 -0.002307 0.003313 0.002998 -0.003472 0.000449 0.000717 0.000693 -0.001481 -0.002380 -0.001628 -0.001155
闪 -0.002677 0.002099 0.000421 -0.003765 0.003273 0.004975 0.004645 -0.003715 -0.001363 -0.004973 -0.002659 -0.004685 -0.002503 0.002748 -0.002853 0.004075 0.001407 -0.004725 -0.003296 0.000595 -0.003235 -0.003249 0.004756 -0.001950 0.001024 -0.004942 0.001009 0.004998 -0.003668 -0.003660 0.004583 0.001397 0.002337 0.002647 0.001370 0.004303 0.001852 0.004351 -0.001353 0.002222 0.000957 0.004379 -0.003412 -0.003010 0.003770 -0.004076 -0.002202 0.004235 -0.001507 -0.003214 -0.004423 0.003027 -0.000159 -0.002274 -0.001605 -0.000787 -0.003422 -0.001886 0.001648 0.003373 -0.000259 0.002912 0.000414 0.002412 -0.002943 0.004270 -0.000269 0.004750 0.003624 -0.000177 0.004561 0.002473 0.001656 -0.000688 -0.002549 -0.004302 0.001536 0.004462 0.003494 -0.004983 0.000689 0.001316 0.000763 0.003674 -0.001015 -0.000369 0.003405 -0.001149 -0.004947 0.001217 0.003932 -0.002599 0.004081 -0.002951 -0.002097 -0.000011 0.001490 0.003355 -0.001380 0.000000
付 0.002171 -0.001786 -0.000219 0.003270 -0.003117 0.003654 0.003714 0.000491 0.003861 -0.001718 0.001223 -0.000610 0.002321 0.001431 -0.000608 0.003034 -0.000067 -0.002371 0.004713 -0.004776 0.004369 -0.002192 -0.002833 -0.004785 0.004515 0.001588 0.000529 0.002250 0.003352 -0.004244 -0.004209 0.004825 0.002002 0.000514 0.000566 0.003603 0.002202 -0.001353 0.002376 -0.002699 -0.004483 -0.003859 0.001227 -0.002826 -0.003194 0.003619 -0.001769 -0.001623 0.004443 0.000495 -0.001056 0.003461 0.003583 0.002312 0.002836 -0.002431 0.002909 0.001968 -0.000798 -0.000009 -0.004113 -0.000556 0.004334 -0.003298 -0.004485 0.003280 -0.002870 0.002592 0.003041 0.001065 -0.000439 0.000237 -0.001551 0.003876 -0.002319 -0.002995 0.003345 -0.003670 -0.004889 -0.003260 0.000872 -0.001104 0.004227 0.004619 0.002420 -0.002483 0.004649 0.002256 0.004417 -0.000801 -0.002857 -0.000188 0.003373 -0.002868 0.002224 -0.002720 0.004189 -0.004399 -0.001475 -0.001724
是 -0.004776 -0.000316 0.003960 -0.003743 -0.000913 -0.004780 -0.001849 -0.002242 -0.002818 -0.003181 -0.004802 -0.004511 -0.003450 -0.004985 0.004936 -0.003775 -0.003515 0.001964 -0.001152 -0.004286 0.004690 0.004844 -0.003386 -0.001621 0.001137 0.002541 -0.001170 0.000710 0.003270 -0.004333 0.002896 -0.002972 -0.001052 -0.002063 -0.003939 -0.000044 0.004480 -0.004804 0.002316 -0.001358 0.001202 0.001521 -0.003469 0.002920 -0.003730 -0.001916 0.004889 -0.000925 -0.000490 -0.003633 0.002835 0.002809 -0.001268 -0.002383 0.003426 0.000162 0.003309 -0.003804 -0.002117 0.002785 0.004150 -0.004853 0.001900 0.004437 0.001754 0.003672 -0.002767 -0.001619 -0.001583 -0.002277 0.004056 -0.001929 0.001957 -0.002318 -0.003259 0.004400 -0.003354 0.002221 0.003294 0.003754 -0.001804 -0.004214 0.002777 -0.003551 -0.001881 0.001542 -0.004313 -0.003457 0.000714 -0.001915 -0.002729 -0.001302 -0.004968 -0.003609 0.004779 0.004417 0.001920 -0.004934 -0.000476 -0.002256
什 0.004635 0.000943 -0.003170 0.000584 0.000096 -0.002082 -0.004361 0.003789 -0.000142 0.002323 0.001280 -0.004603 -0.004691 -0.003597 0.001264 0.004682 -0.004301 -0.002832 -0.000104 0.000073 0.000722 0.002292 0.002564 0.001188 0.004458 -0.002342 0.000869 -0.000069 0.000073 -0.000263 -0.000090 0.002017 0.004950 0.004933 0.002720 0.001566 -0.004519 0.000376 0.000652 -0.004532 -0.002667 0.002467 0.003487 -0.004414 0.001517 0.002778 -0.001448 -0.004723 0.003423 -0.004705 0.003619 -0.003518 0.001190 0.004634 0.001724 0.001365 0.000262 0.001325 0.000315 -0.002544 -0.003891 0.003200 0.000144 -0.003290 -0.003917 -0.003193 -0.003671 0.003610 -0.002982 0.001517 0.001272 -0.000893 -0.004302 -0.000292 0.002678 0.003712 -0.004170 0.003020 -0.003718 0.004561 -0.002983 0.002923 -0.001457 -0.002797 -0.003720 0.001043 -0.002579 0.002538 0.002965 -0.003392 -0.003225 -0.004848 0.001419 -0.003975 0.004176 0.001803 0.001509 0.000910 -0.004127 0.001778
么 0.002872 -0.004702 0.001710 0.004268 -0.001801 0.000092 -0.000692 0.004230 0.004416 0.000135 -0.001769 -0.001313 0.004006 -0.002431 0.004532 0.003905 -0.001346 0.001507 0.004836 0.000354 0.000937 0.002213 0.004690 -0.000360 -0.000382 0.004892 0.003162 0.000972 0.002067 -0.004981 0.001408 -0.002853 0.001026 -0.004353 0.002521 0.003889 -0.003675 0.002342 -0.001343 0.000350 0.004202 0.003223 -0.003237 0.000042 0.000968 -0.000422 0.001160 -0.003038 -0.002877 0.004729 0.004825 -0.002441 0.004946 -0.000021 0.004222 -0.003358 -0.001027 -0.004773 -0.004039 -0.002114 0.003981 0.002743 0.002749 -0.004027 0.000496 -0.004407 0.003041 0.002867 0.002663 0.001560 0.002459 -0.003459 -0.002930 -0.003407 -0.004085 0.002953 0.004240 0.004744 -0.000525 0.003027 0.004985 -0.000704 0.004191 -0.000447 -0.002000 0.004659 -0.000599 -0.004914 0.003987 0.002488 0.004369 0.004584 0.001496 0.001070 -0.004269 -0.003537 0.002161 0.002718 -0.002499 -0.000524
今 0.001794 0.004490 0.004153 -0.001742 -0.004228 -0.003119 -0.002486 0.002113 0.002477 0.001313 -0.003052 0.004003 0.000853 -0.004072 0.000561 0.001401 -0.002578 -0.003374 -0.000537 0.004516 0.004950 -0.000027 -0.003586 0.000999 -0.000389 0.001211 -0.001000 -0.000125 -0.004361 -0.002934 0.000507 -0.001908 0.000963 0.001129 -0.000147 0.004720 0.001834 -0.003166 -0.004994 -0.000952 0.001783 0.003042 0.004916 0.003407 0.003330 0.001897 0.000662 0.003531 0.002928 0.004824 -0.000979 0.004400 -0.002998 0.003581 0.002094 0.002111 -0.002394 -0.001970 -0.002535 0.003499 0.003246 -0.001822 0.001075 -0.000546 0.000957 0.001640 -0.000840 -0.002908 -0.000921 -0.004723 -0.002269 0.001777 0.004067 -0.004578 -0.000676 -0.002305 -0.004635 0.001833 -0.001595 0.004349 0.003911 0.002760 -0.004651 -0.002554 0.002753 0.001847 0.003263 0.001423 0.002107 -0.001154 0.004655 -0.000614 0.003397 -0.000248 -0.004342 0.000168 0.001588 0.004919 -0.002931 0.000645
天 0.003586 -0.004074 -0.002943 0.001463 -0.003356 0.001131 -0.003498 0.000624 -0.004043 -0.000404 0.000576 -0.003940 -0.004613 -0.000770 -0.003395 0.004656 -0.003050 0.003770 -0.003919 0.002518 -0.002269 0.004059 0.000999 -0.003970 0.002020 -0.003103 0.001240 0.004147 -0.001541 0.002356 -0.002825 -0.004671 -0.000397 -0.003344 0.000517 -0.003624 -0.001353 -0.002830 0.002411 -0.002533 0.004343 -0.004821 0.000100 0.000066 0.002779 0.001569 -0.004943 0.000268 0.000430 -0.002654 -0.001166 0.003960 -0.002584 0.003141 -0.000608 -0.000145 0.003511 0.000585 -0.003741 0.000529 0.002979 -0.004006 -0.002126 0.001420 -0.004972 -0.004205 -0.000275 0.004409 -0.004137 0.004285 0.000962 0.002258 -0.004179 0.000133 0.000370 0.003615 0.002581 0.003571 0.003489 0.004516 0.003877 -0.002793 0.002904 -0.004064 -0.000446 -0.001681 0.000251 -0.000867 0.001597 -0.004946 -0.001053 0.004943 -0.000492 0.004603 0.003241 0.001612 -0.001355 0.001801 -0.002246 -0.002631
刷 0.002918 -0.004471 -0.003771 -0.001241 -0.003056 0.000526 -0.002990 -0.002648 -0.004675 -0.004408 -0.000657 -0.002039 0.004340 -0.000943 0.002219 -0.002790 0.002409 0.000465 -0.000217 -0.003870 -0.001074 -0.002741 -0.002196 0.004250 -0.004604 -0.004962 -0.003252 -0.001564 0.001754 0.001589 0.001126 0.004124 -0.000167 0.004419 -0.004166 -0.000728 0.001095 -0.000056 0.002439 -0.000374 0.002350 0.000942 -0.001261 0.003390 0.000900 -0.002258 -0.001323 -0.000484 -0.002070 -0.002694 -0.003045 -0.000395 -0.004908 0.000392 0.004658 0.000843 -0.001248 0.002616 -0.001273 -0.003641 0.002999 0.001169 0.002152 -0.004890 0.002968 0.001217 0.001062 0.000681 -0.000953 -0.000023 0.004381 -0.002836 -0.000020 -0.003340 -0.000863 0.003320 -0.001064 -0.001521 0.004792 -0.004602 -0.004795 -0.002175 -0.001755 0.004399 0.004048 -0.003516 0.002626 0.004558 -0.000494 0.002767 0.003382 0.001817 -0.001053 0.001859 0.000836 -0.003633 -0.000823 0.004534 -0.002062 0.002794
消 0.004337 0.001030 -0.002721 0.002261 0.002763 -0.000018 0.001058 -0.003488 -0.003213 0.003883 0.004881 -0.002582 -0.002382 -0.004090 -0.000494 0.002482 0.001461 0.000142 0.003352 -0.001060 -0.003981 0.003777 0.003153 -0.000784 0.001902 0.002702 -0.000045 0.000277 -0.004334 -0.001374 0.002162 -0.003810 -0.004768 -0.001960 0.002952 0.000407 -0.004928 0.003656 0.003310 -0.004436 0.004840 0.003953 -0.001417 0.004172 -0.003520 0.003366 -0.001350 -0.004465 -0.001794 -0.002445 -0.003909 0.001445 -0.001114 0.004322 -0.000386 -0.004049 0.002469 -0.001732 -0.000119 0.002763 0.001070 -0.002839 -0.000207 0.002099 -0.001127 -0.002499 0.002644 0.000327 -0.001467 -0.002292 0.001428 0.003438 0.002042 0.004215 -0.003839 -0.001776 0.004229 0.000740 0.004229 -0.002999 0.004551 -0.004445 0.000485 -0.003322 0.001295 -0.003140 -0.000993 -0.003600 -0.004823 -0.004150 -0.004063 0.001659 0.000877 -0.003849 -0.004119 0.002425 0.001368 0.002995 0.000849 0.000052
费 -0.003534 0.000251 -0.001349 -0.003630 0.003946 0.003393 -0.003899 0.003404 -0.003546 0.000551 -0.000892 0.001166 -0.004700 0.003015 -0.004470 0.000703 0.003894 0.002076 -0.001273 -0.003679 0.000153 0.003946 -0.000900 0.003676 0.000362 0.003698 0.001824 0.004466 0.001326 0.003126 0.001591 -0.001393 -0.004139 -0.002241 -0.001359 -0.003843 -0.003446 0.001280 0.002950 -0.004951 -0.003404 0.001150 0.000042 0.000172 0.001462 0.003317 0.001965 -0.004982 -0.004986 -0.004240 -0.003771 0.000287 -0.002684 -0.004925 0.000883 0.003249 0.000930 -0.002514 -0.004948 -0.000470 0.000303 0.002090 -0.003924 -0.000914 0.000485 -0.004500 -0.001679 -0.000648 0.002199 -0.000792 0.003348 0.000889 0.003887 0.002758 0.000926 0.000747 0.002343 -0.000407 0.003763 -0.001377 -0.001580 0.001222 -0.004762 -0.002149 -0.003658 -0.003577 0.003117 -0.001836 0.001339 -0.002080 0.004620 -0.001440 0.001140 -0.004872 0.001054 0.003628 0.000312 0.002104 0.000872 0.001600
没 -0.002381 0.002019 -0.002982 0.003949 0.001515 -0.001712 0.003863 0.002677 -0.003990 -0.002052 0.001737 0.000202 -0.004366 -0.003010 0.003621 -0.002361 0.003402 0.000973 -0.000762 -0.002431 -0.004352 -0.004866 -0.000323 -0.001476 -0.001650 0.003374 0.000737 0.002283 0.001041 0.002061 -0.000832 0.004859 0.002376 0.001121 0.004335 -0.003664 -0.001627 0.004483 -0.001954 -0.001571 0.003931 -0.002149 -0.002691 -0.001965 0.004853 0.004713 0.000426 0.002168 0.002874 0.001169 -0.004901 -0.000285 0.001016 -0.000294 0.002286 0.003110 -0.002374 0.003882 -0.004331 -0.004081 -0.004477 -0.003758 -0.002622 0.003815 -0.000459 -0.001832 -0.000746 -0.002921 -0.001428 0.001172 -0.003293 0.004584 -0.001532 0.002015 0.004318 -0.002278 -0.003359 -0.003339 -0.003969 0.002092 -0.003399 -0.001256 -0.003213 0.000965 0.001333 0.003313 -0.003489 -0.003142 0.002248 0.000901 0.003919 0.001408 -0.004923 -0.002867 0.002124 -0.004128 -0.001320 0.003158 -0.001289 0.004107
有 0.004124 -0.000221 0.004725 -0.002943 0.000076 0.003276 0.004631 -0.004147 0.003678 -0.002912 0.002668 -0.004743 0.003033 -0.003601 -0.004418 -0.001341 -0.003091 -0.002615 0.000345 -0.002313 0.002659 -0.001751 0.003436 0.001739 -0.002983 -0.004078 0.002983 0.002436 0.001316 -0.004509 -0.004919 -0.004457 0.002310 0.004854 0.002379 -0.003486 0.002053 -0.000709 0.004776 0.004989 0.004794 -0.001615 -0.004834 0.004989 0.001079 0.002393 0.000628 0.000710 -0.002271 -0.004896 -0.004082 -0.000691 0.004367 0.003565 0.003219 -0.003522 0.000843 -0.000206 -0.001526 0.002778 0.001268 0.001387 0.001732 0.004204 0.001037 0.001500 0.000973 0.004728 0.001919 -0.004719 -0.004943 -0.000656 -0.003727 0.000282 -0.002655 -0.002305 0.004095 -0.003894 -0.000191 0.000348 0.000688 -0.002307 -0.001008 0.000159 0.002757 0.004234 0.001647 -0.000587 -0.004334 -0.001439 -0.001231 0.004058 -0.001861 -0.003058 0.001756 -0.004068 -0.001926 -0.001803 0.003356 -0.003369
打 -0.001483 -0.000258 0.004365 0.004336 -0.001615 -0.001273 0.001781 -0.002020 0.003273 0.000399 -0.002284 -0.004536 -0.000007 -0.003809 0.000510 0.001467 -0.002521 -0.004652 -0.000126 0.001430 0.004007 0.001490 -0.001963 0.003346 -0.000156 0.004475 -0.002583 0.001899 0.003771 0.002998 -0.000207 0.004845 0.003132 0.002641 0.002209 0.003632 0.002298 0.004066 0.002166 -0.000171 -0.003745 0.002762 0.004452 -0.004912 0.000884 -0.001350 -0.002268 0.001902 -0.002364 0.001510 0.003078 -0.001155 0.002433 0.004550 -0.003122 -0.002790 0.004465 -0.000338 -0.003388 0.002858 -0.003238 0.000760 0.002644 -0.004718 -0.001790 0.004866 -0.003459 0.000193 0.001880 -0.001404 0.003379 0.003246 -0.004629 0.004144 0.004064 -0.002191 -0.004277 0.001343 -0.004406 -0.000815 -0.002393 -0.001146 0.001418 0.004456 -0.000673 0.000362 -0.004426 0.000858 0.001354 0.002864 0.000907 -0.003735 0.001988 -0.004345 -0.004981 0.000127 -0.000982 0.004063 -0.004296 0.000493
印 -0.001384 0.000812 0.003678 0.002792 0.001768 0.003942 0.002695 0.004860 -0.001288 0.004053 0.004980 0.002808 -0.004705 0.000641 0.004958 0.004106 0.004952 -0.004612 0.002309 0.001618 0.001660 -0.003866 -0.004003 -0.004785 -0.002791 -0.004361 -0.002346 -0.004141 0.004083 -0.004635 -0.003985 -0.000207 -0.000388 0.002565 -0.004548 0.002984 0.002021 0.004480 0.000811 -0.000690 -0.004770 -0.003034 -0.002758 0.003054 -0.000984 0.001214 0.002129 -0.001554 0.004243 -0.000139 -0.002763 0.004730 -0.004939 0.004710 -0.000476 -0.002305 -0.001944 0.000491 -0.002616 -0.004133 0.004844 -0.003182 -0.004394 -0.004917 -0.004321 -0.001063 -0.001824 0.003134 -0.002202 -0.000125 -0.002556 -0.004764 -0.000066 -0.003170 0.004442 -0.000407 -0.001705 0.000382 -0.001846 -0.002784 0.000278 -0.000075 0.002917 0.004506 0.001156 0.001920 -0.001499 0.004849 0.003851 -0.000732 0.000362 -0.002090 0.002800 -0.001753 0.003910 -0.000418 0.003751 0.004524 -0.004697 -0.003850
签 0.003852 -0.000702 -0.000676 0.000601 0.003817 -0.002020 -0.003801 0.003821 0.002354 0.001617 -0.004727 -0.000645 0.003090 0.002316 0.003455 -0.000243 -0.003399 0.000203 -0.002030 -0.004661 0.004988 -0.002283 -0.000649 0.000250 0.000249 -0.002979 -0.003037 -0.004315 -0.000327 -0.001106 0.004783 -0.003225 -0.000652 -0.000258 0.002845 -0.003476 0.000988 0.002774 -0.000906 -0.000019 -0.000813 0.000446 -0.000944 0.003320 -0.002199 0.001022 -0.004856 0.003946 -0.000097 0.003850 0.001973 0.002626 0.003555 0.002953 -0.000868 0.000019 -0.000059 0.000878 -0.000483 -0.003506 0.001997 0.001010 -0.002508 0.000359 0.000144 -0.001587 -0.003369 0.004304 -0.004984 0.000764 -0.004497 -0.001356 0.002498 -0.000831 0.001065 0.000776 0.004607 -0.002872 0.004262 -0.000706 0.002162 0.003660 0.000993 -0.002078 0.000058 -0.000034 -0.003512 -0.000453 -0.002145 -0.000016 -0.004626 0.004173 0.000942 0.003003 0.001639 0.004970 -0.002363 -0.002151 -0.002657 0.000918
购 0.002060 0.002142 0.000356 -0.001210 0.000215 0.000285 -0.004273 0.003012 -0.000632 0.001733 -0.004206 0.002612 -0.003034 -0.000589 -0.003908 -0.002380 -0.001624 -0.004490 0.000487 -0.004552 0.002011 -0.004073 0.003442 0.001368 -0.000497 -0.001294 0.003922 -0.002730 -0.001855 -0.000596 0.000632 -0.002706 -0.003665 0.004773 0.004137 -0.002897 0.002083 0.004555 0.002723 -0.000047 -0.001539 0.000496 -0.002035 0.003636 0.000515 0.003422 0.000000 0.002355 -0.003302 -0.004403 0.004628 0.000386 -0.004595 0.000481 0.001790 -0.002472 -0.002827 -0.001987 0.001144 -0.003384 0.000771 0.004607 -0.003156 -0.003069 0.000480 0.002236 0.000316 -0.004162 0.000378 0.000647 0.004607 -0.000926 0.003130 -0.001802 -0.000985 0.001016 0.004446 0.000076 -0.004354 0.001947 0.002052 -0.004225 -0.003017 -0.003350 -0.000789 -0.002206 0.001619 -0.001050 -0.002215 -0.001685 -0.004718 -0.003867 0.004357 0.000211 -0.004181 0.001877 0.000111 0.002015 -0.003792 0.004277
单 -0.002542 -0.002544 0.004397 -0.003208 0.004137 -0.004695 0.002424 -0.004397 -0.002355 0.002163 -0.001881 -0.000748 0.004020 -0.002051 -0.004044 -0.001342 0.002090 -0.000807 0.003441 -0.004430 0.000451 0.004860 0.000804 0.000047 0.001948 0.003823 0.002411 0.000207 0.001546 -0.001282 0.000091 -0.001881 -0.003672 -0.004347 -0.004209 0.003043 0.002057 0.002456 -0.004805 -0.000633 -0.002224 -0.001048 0.004577 0.004901 -0.003923 -0.003903 -0.003186 -0.000927 -0.004112 0.003476 0.000016 0.002485 -0.001412 -0.003208 0.003112 0.004987 0.003895 0.002358 0.002435 0.003917 -0.004508 0.000404 0.000757 0.004078 0.003058 0.002596 -0.004330 0.003958 -0.004310 -0.000966 0.002101 0.004610 -0.001108 -0.003049 0.000372 0.001450 -0.000922 0.001756 -0.002047 -0.000012 -0.000295 0.004624 0.000521 0.001026 -0.003059 -0.002294 -0.000403 -0.004311 0.000926 -0.004387 -0.000914 -0.001771 0.003495 -0.003575 0.004679 0.002426 -0.000881 -0.002297 -0.003252 0.001537
银 -0.003620 0.002607 0.003379 -0.001796 -0.000295 -0.001274 -0.004813 -0.001174 -0.001674 -0.003513 -0.000332 -0.003607 0.002920 -0.003210 0.003701 0.001760 -0.004014 -0.001505 -0.004760 -0.004404 0.002309 0.001883 -0.003369 0.001849 0.000581 0.002390 -0.001199 0.004346 0.000574 0.001699 0.004508 0.002562 -0.002118 0.002380 -0.004245 0.000615 -0.003472 -0.003234 -0.003477 0.002678 0.001751 -0.004871 0.004359 0.004845 0.001407 -0.001362 -0.002776 -0.000811 0.000069 0.001984 -0.000212 0.004317 0.002438 -0.002246 -0.003929 -0.001256 -0.003282 0.001792 0.002140 0.004865 0.002931 -0.004933 -0.004096 -0.000170 -0.003120 -0.003947 0.002036 0.002236 -0.003228 -0.001639 -0.001053 -0.001583 -0.002854 -0.003320 -0.001602 0.001886 -0.001655 -0.000972 0.002965 -0.000952 -0.003988 -0.003003 -0.001210 0.004880 -0.004999 0.001713 -0.003536 0.001315 -0.004270 0.000234 0.000739 0.003981 -0.001859 -0.003407 -0.004500 -0.001570 -0.003951 -0.004894 -0.004116 -0.003464
行 -0.000055 -0.002545 0.002910 -0.000082 -0.003080 0.003364 -0.001826 -0.004749 -0.003190 -0.000701 -0.001080 0.004180 0.001084 0.004159 0.001520 0.004269 -0.000926 0.001178 0.002162 0.002502 0.002619 -0.000789 -0.004237 -0.004620 0.000707 0.004495 0.002144 0.000286 -0.004514 -0.001623 0.004916 0.002563 -0.003753 0.004941 -0.001534 -0.001135 -0.003600 0.004374 -0.004084 -0.001229 -0.003021 -0.001826 -0.002036 -0.000406 -0.002641 0.004609 -0.003778 0.000178 0.004156 0.002227 -0.004153 0.001975 0.004123 0.001686 -0.003128 -0.002975 -0.001643 -0.003246 -0.002029 -0.003775 0.002003 -0.003186 -0.000657 0.000046 0.004924 0.004559 -0.001817 0.004492 -0.003708 0.000917 0.000828 0.002187 -0.000728 0.000190 -0.004617 -0.004199 -0.003228 -0.002002 -0.000280 -0.000187 0.003133 -0.002487 0.001571 0.000605 -0.000531 -0.000769 -0.001002 -0.002305 -0.000208 -0.004773 0.004802 -0.000864 0.004299 -0.004057 -0.001156 0.000708 0.002714 0.004151 0.003452 -0.002327
已 0.002860 -0.002209 -0.003198 0.000534 0.003953 0.001033 -0.003697 0.003464 -0.000627 -0.001658 -0.003149 0.003110 0.003648 -0.000963 0.003378 -0.001180 -0.002241 -0.002614 0.002980 0.003379 -0.004496 0.001051 -0.000981 -0.001267 0.002265 0.004090 -0.003246 -0.004731 0.002366 0.004690 -0.001748 0.002495 -0.000975 -0.000839 0.002511 -0.004174 0.003547 -0.003020 -0.004621 -0.003629 -0.002727 -0.000146 0.001921 0.002897 -0.002833 -0.003127 -0.000387 0.001899 0.002533 0.001539 -0.003536 -0.003962 0.003949 0.004226 -0.003747 0.003941 0.004620 -0.000275 -0.004643 -0.001286 0.003145 0.000956 0.004115 0.004845 0.004575 0.001722 0.003726 0.000889 0.003483 -0.000325 0.002988 -0.003561 -0.004373 -0.004782 -0.004597 -0.003864 -0.003956 -0.001598 0.000514 -0.002692 0.003724 0.003711 -0.004248 0.002607 0.003232 -0.004897 -0.003038 -0.001713 -0.000757 0.003137 0.002794 0.000531 0.002215 -0.002903 0.001620 0.004101 -0.003351 0.004438 0.001327 -0.001439
扣 -0.004944 0.000085 0.003566 -0.001301 -0.000918 -0.003058 -0.000282 -0.003930 0.002273 -0.002606 -0.000648 0.001132 0.003067 0.001980 -0.000607 -0.001779 -0.000161 0.000445 -0.000871 0.003861 -0.002031 -0.004296 -0.000178 -0.001400 0.002385 -0.001362 0.000590 -0.003382 -0.003249 0.001832 0.002352 -0.000081 0.004637 0.001402 0.001814 -0.001890 0.001823 0.002524 0.002926 -0.001315 0.002126 0.004423 -0.004000 -0.003116 0.000416 -0.002660 -0.004308 -0.000919 -0.000350 -0.001370 -0.004992 -0.003774 0.004702 0.004190 0.003985 0.000743 -0.002146 -0.003126 -0.003604 0.002459 0.001307 -0.003414 -0.001375 -0.004698 -0.003687 0.002572 0.004714 0.003189 0.000150 0.000714 -0.002763 0.004077 0.000810 -0.004502 -0.000562 -0.003091 -0.002443 0.001974 -0.004807 -0.000148 0.004675 -0.000317 0.001276 -0.003135 -0.002806 -0.002704 0.001754 0.004035 -0.000655 -0.001641 -0.000393 -0.004197 0.000580 -0.001813 -0.000219 0.003901 -0.003323 0.002932 0.002738 -0.003101
账 0.003870 0.000842 -0.000207 0.000900 0.000706 -0.002854 -0.003052 -0.004407 -0.000532 -0.004567 -0.002998 0.002614 0.003972 -0.000302 0.000457 -0.002577 0.001607 -0.004817 0.002671 -0.004918 0.004675 0.001925 0.003789 -0.001223 -0.002706 0.002798 -0.004978 -0.001919 0.002125 -0.000014 0.002534 0.000694 -0.001602 -0.004904 -0.003177 -0.002629 0.000468 0.003307 0.002611 0.003727 0.003145 0.004086 0.000082 -0.000982 -0.004095 0.001813 -0.001446 -0.003289 -0.004326 0.002787 0.001954 0.000844 0.000497 -0.004345 -0.004743 -0.002910 0.002758 0.001945 0.003365 -0.000919 0.000447 -0.004765 -0.004260 -0.003214 -0.002318 -0.004732 0.001022 0.000702 0.004381 -0.001278 0.000926 0.002899 -0.003415 -0.000522 0.000285 0.002339 0.003198 0.002878 -0.001502 0.001641 0.004024 -0.003539 -0.004555 0.003601 -0.003081 0.002225 0.004689 0.001940 0.002349 0.002605 0.001057 0.004561 -0.001008 0.004909 0.000076 -0.001102 -0.003400 0.000268 -0.002834 0.003499
我 -0.001060 0.001490 -0.000115 0.003797 -0.000607 -0.003122 -0.002708 0.002076 -0.003523 0.001109 -0.002475 0.002386 -0.002305 -0.000894 0.000290 0.002348 -0.001670 -0.003294 -0.003442 -0.002876 0.001189 -0.003865 0.004900 -0.003926 0.003886 0.000791 -0.003521 0.004528 0.000231 0.003756 -0.002780 0.000386 -0.004592 0.002346 0.004006 0.001121 0.001163 0.002047 -0.003271 -0.003348 -0.004407 -0.002059 -0.003614 -0.002238 0.000916 -0.001966 0.000275 0.004102 -0.000753 0.002389 0.002298 -0.001950 0.004147 -0.003237 -0.004469 0.000041 0.004915 -0.000730 -0.000802 -0.001271 0.000301 -0.000794 0.003893 0.002518 0.001930 -0.000785 -0.004111 -0.003031 -0.004336 0.004302 -0.002045 -0.001205 0.003880 -0.004847 -0.001075 -0.002778 -0.002492 -0.002660 -0.000896 0.003046 0.000613 0.002735 0.001935 -0.001049 -0.002367 0.004830 0.004973 0.001116 -0.000136 0.003512 0.003286 -0.001702 0.004551 -0.002513 -0.003104 0.001461 -0.004954 0.003151 0.001174 -0.003438
该 0.003485 -0.000207 0.004454 -0.004060 0.001725 -0.002250 0.003521 0.004437 -0.002482 0.004774 0.001686 0.003050 -0.003275 -0.002541 -0.001224 0.003071 0.003837 -0.001179 0.000890 0.001333 0.002059 0.003422 -0.002499 -0.000358 -0.002470 0.002407 0.003295 -0.003861 -0.003118 0.000918 -0.000687 -0.001046 -0.004537 -0.002688 0.004427 -0.004614 0.002176 0.002610 -0.003901 0.002136 -0.000834 0.000871 0.000111 0.004866 0.002543 -0.001505 0.004013 -0.000605 0.002670 -0.004092 -0.001848 0.001800 0.000578 -0.002180 -0.004240 -0.004920 -0.001419 -0.003491 -0.000993 -0.001455 0.000587 -0.000407 -0.004369 0.003388 -0.003390 -0.003554 0.000021 -0.004605 -0.000419 -0.002430 0.004226 0.002699 0.000109 0.001540 -0.003537 -0.003124 0.002480 -0.000171 -0.003052 -0.003796 -0.004196 -0.004690 0.002458 -0.000314 -0.004259 -0.002964 -0.001123 0.000359 0.000487 0.003643 0.001431 0.004518 -0.001050 0.003128 0.000012 -0.000238 -0.002145 -0.004609 0.000773 0.004970
如 0.004156 0.001479 -0.003475 -0.004442 -0.001624 -0.004547 0.002150 0.004072 -0.004962 0.001412 0.001666 -0.001610 0.002996 -0.004500 -0.002208 0.001081 -0.000963 0.002190 -0.002445 0.003894 0.004260 -0.000069 0.000112 0.003685 0.003896 0.001368 -0.003751 0.004818 -0.004705 0.002218 -0.001364 0.001726 0.001835 0.001594 -0.000008 -0.001974 0.003311 -0.001471 0.003132 0.001321 0.000894 0.001406 -0.000574 -0.004172 -0.002821 0.001897 -0.004636 -0.001235 -0.004060 -0.000683 -0.001120 0.003804 -0.002555 0.001364 0.000270 -0.004810 -0.004818 -0.001234 -0.002113 -0.000404 0.000601 -0.003311 -0.001178 -0.003293 -0.001050 -0.004989 0.002457 0.002772 -0.000648 0.003537 0.002015 0.001707 0.000384 0.003140 0.003465 0.003934 0.004369 0.001435 -0.002955 -0.001046 0.001516 0.002051 0.004466 -0.004656 -0.001511 0.000678 -0.001179 -0.002911 -0.004954 0.003429 -0.004964 0.002204 0.003532 -0.001651 -0.000565 0.003484 0.004004 0.002773 -0.004099 0.003298
何 0.004840 -0.002325 -0.003039 0.001035 0.004924 -0.002414 -0.000945 0.002479 -0.003892 0.002264 0.000397 0.001707 0.004665 -0.002884 -0.003869 0.002626 0.001309 0.001113 0.002330 0.004469 0.004546 -0.002940 -0.003459 0.002280 -0.004904 -0.002089 0.001823 0.004639 -0.000562 -0.000916 -0.002390 0.002782 0.001293 0.000771 0.004051 0.004051 0.001422 0.002465 -0.002279 -0.004091 0.002817 -0.003556 0.003350 0.000384 0.001878 -0.002623 -0.000815 0.000204 -0.000378 -0.002447 -0.003988 -0.000215 -0.003132 0.002964 -0.002395 0.004541 -0.002542 0.001606 0.001640 -0.004175 0.000224 -0.002146 0.001597 0.001439 -0.000140 -0.000532 -0.004355 -0.004376 -0.002095 0.001932 -0.000167 -0.002806 0.002249 -0.003264 0.002711 -0.004514 0.002078 -0.002449 0.002048 0.004155 0.001534 0.000174 -0.004150 0.002713 -0.004842 -0.000792 -0.000987 -0.003548 0.003417 -0.000794 -0.001052 -0.001007 0.003215 0.003200 -0.002433 -0.002769 -0.004856 -0.003858 -0.003087 0.004113
处 -0.004229 -0.001603 0.000473 0.000110 0.002814 -0.003630 -0.004051 0.003052 0.004253 -0.003275 -0.001843 0.000618 0.004445 -0.001372 -0.001621 0.001082 0.003136 0.004978 -0.002412 0.004213 -0.004295 -0.003846 -0.002253 -0.003290 -0.002641 0.004172 0.004804 0.000747 -0.002324 -0.004543 0.001809 0.001668 -0.002508 -0.000782 -0.004670 0.002877 0.000383 -0.004552 -0.003620 0.000050 0.001622 0.004376 0.003112 0.004752 0.001157 -0.004311 0.001965 -0.002879 -0.003923 0.000755 -0.000623 0.000093 -0.003803 0.001779 -0.003179 0.004663 0.001030 0.004773 -0.002482 0.000435 0.001021 0.003027 -0.004657 -0.004404 -0.003770 0.003731 0.002290 0.000546 0.003741 0.000757 -0.000978 0.000476 0.002584 0.004040 -0.001597 -0.001057 -0.004083 -0.004928 -0.004899 -0.001436 -0.003392 0.000776 -0.000767 -0.004842 -0.004186 0.004519 0.001734 0.002469 -0.004104 0.003965 0.001348 -0.001249 0.001839 0.002623 0.003115 -0.000229 -0.003570 -0.000410 0.001907 -0.000114
理 -0.003992 0.004784 -0.003095 -0.003224 -0.003711 -0.002771 0.001997 -0.001714 -0.003120 0.004301 0.000049 0.004205 0.001323 0.003433 0.000412 0.000016 -0.000310 -0.000963 -0.000164 0.002941 -0.004752 0.000775 0.003449 0.003260 0.003344 0.004265 -0.000709 0.001804 0.002458 0.004649 0.000594 0.000903 -0.000447 0.001308 -0.004394 0.001851 0.001340 0.003427 0.000476 -0.002381 -0.001988 -0.004101 0.001469 -0.004439 0.000024 0.003759 0.000838 -0.000636 -0.000025 0.002658 0.003243 0.002856 0.002179 0.002684 0.002055 0.000118 0.004404 0.000963 -0.002762 0.004567 0.004317 -0.001492 0.002467 0.004463 0.001428 -0.003337 0.000211 -0.002439 -0.002038 0.004978 -0.000184 0.001934 0.000799 0.002549 0.003695 0.003365 -0.001884 -0.001555 0.000561 -0.003074 -0.002037 -0.002448 0.002827 0.004935 -0.002245 0.002855 0.003943 -0.000246 -0.000028 -0.004381 -0.001008 0.002408 -0.003228 -0.004469 -0.003462 -0.001721 0.001301 0.002983 0.004203 -0.003595
买 -0.000001 -0.002626 0.003039 0.003889 0.001484 -0.003820 0.001492 -0.002202 0.003536 0.001530 0.000912 0.003774 0.000133 0.003767 0.003131 -0.001203 0.001314 -0.002814 -0.004697 -0.001999 0.000498 0.001301 0.000028 -0.000466 -0.000474 -0.004773 0.000943 0.000151 -0.004680 -0.004052 -0.002405 0.004864 0.002746 0.001017 -0.002834 0.000056 -0.003529 -0.000353 -0.002051 -0.004675 0.001089 0.004162 0.004846 0.000146 0.004954 -0.000104 -0.002348 -0.001343 0.004010 0.001996 -0.000459 -0.000131 -0.001749 -0.002725 -0.001392 -0.002975 -0.000237 0.004524 0.000706 0.001743 0.002634 -0.003536 0.000062 0.001594 -0.001281 -0.003027 0.000425 -0.004885 -0.003380 -0.004056 0.001476 0.003887 -0.002700 -0.004077 -0.001387 0.002025 0.004206 -0.004006 0.002645 0.000320 0.002791 -0.000676 0.001127 0.000877 0.001545 0.000761 -0.001588 0.004740 -0.001746 0.003663 0.004728 0.002901 -0.004750 0.003007 0.003172 -0.001112 -0.004116 -0.002077 -0.001714 -0.004122
东 -0.004293 0.001732 -0.002026 0.000698 0.000437 -0.004723 -0.002354 0.002743 0.001426 0.004051 -0.004339 0.002143 0.000309 0.001060 0.001124 0.003464 0.003823 0.003728 -0.003971 -0.000324 0.001353 -0.003803 -0.000192 -0.003541 0.003711 -0.001017 0.002857 0.000155 0.001856 -0.003489 0.004133 0.003558 -0.002802 0.003329 0.003821 -0.004919 -0.002206 -0.001418 -0.004692 0.000475 -0.001185 -0.000383 0.003567 -0.002196 0.003127 -0.001320 0.004251 -0.000207 0.002859 0.004639 0.003018 0.000092 -0.003149 -0.004967 -0.003307 0.004641 0.004693 -0.002070 0.004661 0.004592 -0.000027 -0.000418 0.000229 0.002331 -0.000699 -0.000867 -0.002128 -0.000410 -0.001450 -0.003557 0.002394 -0.001991 -0.002910 0.001922 0.003769 0.004439 -0.002204 0.004144 -0.002205 -0.001929 0.001163 0.001883 -0.004457 -0.004977 0.004746 0.000287 -0.004463 -0.001203 -0.002577 -0.003392 0.001480 0.001023 0.002303 0.001421 0.004687 0.000603 -0.004319 -0.003957 0.004043 -0.001660
西 -0.001899 0.002799 -0.001187 -0.000172 -0.002431 -0.000246 -0.000350 -0.004329 -0.002818 -0.003685 -0.000853 -0.002670 -0.003781 0.001986 -0.003359 0.003146 -0.003849 0.001023 0.000192 0.000523 0.001037 -0.003338 -0.002852 0.001619 0.004776 -0.001543 0.002910 -0.003073 0.004613 0.001175 -0.001062 -0.000304 -0.001558 0.004876 -0.003860 -0.004841 0.004187 0.004375 0.002878 0.000952 0.000589 -0.004311 0.003033 -0.003836 -0.001407 0.001263 0.001825 -0.003984 -0.001075 -0.000425 -0.000014 0.003279 0.001567 0.004756 -0.004368 0.004920 -0.004938 -0.003439 -0.002243 -0.000917 0.001736 0.000367 -0.004344 0.003910 0.000433 -0.004484 -0.003923 0.004769 -0.001081 -0.003085 0.004511 -0.004532 0.002031 0.004750 0.001110 -0.001105 -0.000994 -0.001838 0.001258 -0.002552 -0.003080 -0.001371 -0.001360 -0.002952 0.000596 0.001674 -0.001930 0.004662 0.003994 -0.001162 -0.001590 0.002816 -0.004977 -0.001683 0.002366 -0.001466 -0.001374 0.003717 -0.001533 0.003460
款 0.004388 0.000340 0.004656 -0.001022 -0.002714 -0.003039 -0.002485 0.003322 0.001906 -0.003644 -0.003959 0.002110 -0.004059 -0.004768 0.002893 -0.002162 0.000204 -0.004809 -0.004618 -0.001565 0.004201 -0.004672 0.001286 -0.003030 0.003091 0.002113 0.004493 -0.003099 -0.004382 -0.002838 -0.003967 0.002441 0.001987 -0.000022 0.002986 0.003888 0.003268 -0.002500 -0.004734 -0.000269 -0.003349 0.000537 -0.000930 -0.004231 0.000756 0.004097 0.001037 0.003319 -0.004635 0.003073 0.004985 0.001177 -0.004076 -0.002768 -0.004238 0.004536 0.003756 -0.003151 0.002641 0.002825 -0.004204 -0.002552 0.001984 -0.003768 -0.002260 -0.003421 -0.004303 0.000759 0.003899 -0.004519 0.001946 -0.004968 -0.001122 0.001881 0.002678 -0.003770 -0.002360 0.002593 0.002819 -0.001953 0.000680 -0.004549 0.004433 -0.003940 -0.004792 -0.000390 -0.002034 0.001347 0.004025 0.004252 -0.002379 0.003143 -0.000404 -0.001807 0.004292 0.004285 0.002796 -0.003229 -0.003331 -0.001531
字 -0.001898 -0.000420 -0.002941 -0.004301 -0.000999 -0.000556 0.004857 0.003700 0.002618 -0.003739 0.001434 0.002474 0.002170 0.001189 0.000562 -0.000255 0.000256 0.000542 0.004588 -0.001642 0.001199 0.002011 0.000802 -0.003109 -0.003539 0.001083 0.004078 0.002790 -0.002680 0.002460 0.003889 0.001935 0.003242 0.003070 0.003314 -0.001400 -0.003159 0.004699 0.004471 0.003184 -0.002043 -0.000326 -0.002660 0.000561 -0.002148 0.004119 0.001340 0.003411 -0.003267 -0.001540 -0.002836 -0.001879 0.002150 0.003685 -0.000294 -0.002524 0.003206 -0.002339 -0.001102 0.003067 0.001891 -0.000856 -0.001569 0.002986 0.002006 0.000604 -0.002897 0.000764 -0.003050 -0.001635 0.003900 -0.002678 0.002549 -0.004416 0.002932 -0.000439 0.001852 -0.001433 0.000777 -0.000331 -0.001108 0.003690 0.004949 0.000854 0.000516 -0.001202 0.003703 -0.001958 0.004252 -0.001198 -0.000071 -0.000747 -0.003332 -0.004221 -0.000955 0.004888 -0.000016 -0.000154 -0.001500 0.002350
的 0.004600 0.001939 -0.000890 0.000440 0.000073 -0.003427 -0.000488 -0.002364 -0.002289 0.000575 -0.000239 0.004320 -0.001795 0.004398 0.001855 0.004979 0.001127 0.000913 -0.004749 -0.001277 -0.002095 0.004404 -0.004865 -0.004419 0.000197 0.002048 -0.004441 -0.000493 -0.004101 -0.001207 -0.000244 0.003597 0.004298 0.002221 0.004729 -0.000568 0.003376 0.003827 -0.000437 0.003660 -0.000656 0.003467 -0.003714 -0.003634 -0.001473 0.003447 -0.001217 -0.001869 0.003103 -0.001527 0.001674 0.000158 0.004087 0.002800 -0.002631 -0.003042 -0.002735 -0.004329 -0.004324 0.002800 0.003282 0.004416 0.004245 -0.004896 -0.002020 0.000560 0.001310 -0.004446 -0.003692 0.003301 -0.000250 -0.003053 0.001947 0.003498 0.001501 0.003322 0.000163 -0.004008 0.001436 0.003598 0.002386 0.000327 0.000607 0.002604 0.000689 -0.002116 -0.001158 -0.002038 0.004687 0.002611 -0.004994 -0.003175 0.002765 0.003436 -0.001573 0.003449 -0.004884 -0.000129 -0.001490 -0.004972
